{"learner":{"attributes":{"best_iteration":"47","best_score":"0.3975850086383246","scikit_learn":"{\"_estimator_type\": \"classifier\"}"},"feature_names":["microaneurysm count","microaneurysm area","exudate count","exudate area","hemorrhage count","hemorrhage area","cotton wool spot count","cotton wool spot area","neovascularization count","neovascularization area","laser photocoagulation scar count","laser photocoagulation scar area"],"feature_types":["int","float","int","float","int","float","int","float","int","float","int","float"],"gradient_booster":{"model":{"gbtree_model_param":{"num_parallel_tree":"1","num_trees":"265"},"iteration_indptr":[0,5,10,15,20,25,30,35,40,45,50,55,60,65,70,75,80,85,90,95,100,105,110,115,120,125,130,135,140,145,150,155,160,165,170,175,180,185,190,195,200,205,210,215,220,225,230,235,240,245,250,255,260,265],"tree_info":[0,1,2,3,4,0,1,2,3,4,0,1,2,3,4,0,1,2,3,4,0,1,2,3,4,0,1,2,3,4,0,1,2,3,4,0,1,2,3,4,0,1,2,3,4,0,1,2,3,4,0,1,2,3,4,0,1,2,3,4,0,1,2,3,4,0,1,2,3,4,0,1,2,3,4,0,1,2,3,4,0,1,2,3,4,0,1,2,3,4,0,1,2,3,4,0,1,2,3,4,0,1,2,3,4,0,1,2,3,4,0,1,2,3,4,0,1,2,3,4,0,1,2,3,4,0,1,2,3,4,0,1,2,3,4,0,1,2,3,4,0,1,2,3,4,0,1,2,3,4,0,1,2,3,4,0,1,2,3,4,0,1,2,3,4,0,1,2,3,4,0,1,2,3,4,0,1,2,3,4,0,1,2,3,4,0,1,2,3,4,0,1,2,3,4,0,1,2,3,4,0,1,2,3,4,0,1,2,3,4,0,1,2,3,4,0,1,2,3,4,0,1,2,3,4,0,1,2,3,4,0,1,2,3,4,0,1,2,3,4,0,1,2,3,4,0,1,2,3,4,0,1,2,3,4,0,1,2,3,4,0,1,2,3,4],"trees":[{"base_weights":[-4.0016165E-1,-5.2538365E-1,2.188612E-1,-5.8363414E-1,1.8613139E-1,-5.9186506E-1,-0E0,-6.0028125E-2,-0E0],"categories":[],"categories_nodes":[],"categories_segments":[],"categories_sizes":[],"default_left":[0,0,0,0,0,0,0,0,0],"id":0,"left_children":[1,3,-1,5,-1,7,-1,-1,-1],"loss_changes":[3.984333E1,1.6390053E1,0E0,6.7725754E-1,0E0,6.931915E-1,0E0,0E0,0E0],"parents":[2147483647,0,0,1,1,3,3,5,5],"right_children":[2,4,-1,6,-1,8,-1,-1,-1],"split_conditions":[2E0,3.78E-5,2.188612E-1,3.085576E-2,1.8613139E-1,1E0,-0E0,-6.0028125E-2,-0E0],"split_indices":[10,9,0,3,0,8,0,0,0],"split_type":[0,0,0,0,0,0,0,0,0],"sum_hessian":[1.2320001E2,1.1808001E2,5.1200004E0,1.1584001E2,2.2400002E0,1.14560005E2,1.2800001E0,1.1328001E2,1.2800001E0],"tree_param":{"num_deleted":"0","num_feature":"12","num_nodes":"9","size_leaf_vector":"1"}},{"base_weights":[9.5362866E-1,1.5547178E0,-3.9845756E-1,2.145528E0,-4.610226E-2,3.2338306E-1,-4.889768E-1,2.2295768E0,-0E0,3.251318E-1,-4.083205E-2,-0E0,7.142857E-2,-5.1213735E-1,-0E0,2.2886972E-1,-0E0,4.8057258E-2,-2.3809524E-2,-2.899824E-2,-5.8951963E-2],"categories":[],"categories_nodes":[],"categories_segments":[],"categories_sizes":[],"default_left":[0,0,0,0,0,0,0,0,0,0,0,0,0,0,0,0,0,0,0,0,0],"id":1,"left_children":[1,3,5,7,9,11,13,15,-1,17,-1,-1,-1,19,-1,-1,-1,-1,-1,-1,-1],"loss_changes":[1.0324237E2,8.389284E1,2.7036047E0,1.2465393E1,3.3163736E0,6.5103054E-1,4.0067673E-1,8.16452E0,0E0,1.174751E0,0E0,0E0,0E0,5.5480957E-2,0E0,0E0,0E0,0E0,0E0,0E0,0E0],"parents":[2147483647,0,0,1,1,2,2,3,3,4,4,5,5,6,6,7,7,9,9,13,13],"right_children":[2,4,6,8,10,12,14,16,-1,18,-1,-1,-1,20,-1,-1,-1,-1,-1,-1,-1],"split_conditions":[7.07E-5,1E0,1.63356E-4,3.77668E-4,3E0,1.00581E-4,2.9E1,1E0,-0E0,3.08825E-4,-4.083205E-2,-0E0,7.142857E-2,1.008192E-3,-0E0,2.2886972E-1,-0E0,4.8057258E-2,-2.3809524E-2,-2.899824E-2,-5.8951963E-2],"split_indices":[7,0,7,3,0,7,2,8,0,3,0,0,0,7,0,0,0,0,0,0,0],"split_type":[0,0,0,0,0,0,0,0,0,0,0,0,0,0,0,0,0,0,0,0,0],"sum_hessian":[1.2544001E2,8.704001E1,3.84E1,6.3680004E1,2.3360003E1,3.5200002E0,3.488E1,6.1440002E1,2.2400002E0,1.0880001E1,1.24800005E1,1.9200001E0,1.6000001E0,3.3280003E1,1.6000001E0,5.9840004E1,1.6000001E0,9.280001E0,1.6000001E0,1.0880001E1,2.2400002E1],"tree_param":{"num_deleted":"0","num_feature":"12","num_nodes":"21","size_leaf_vector":"1"}},{"base_weights":[1.01616256E-1,-4.454176E-1,1.7231637E0,-5.2168813E-2,2.6077098E-1,1.9978085E0,-0E0,5.871886E-1,-1.3513513E-1,2.0498084E-1,3.9325844E-2,4.0145986E-2,-3.2846715E-2,7.142857E-2,-0E0,-2.8925618E-2,-0E0],"categories":[],"categories_nodes":[],"categories_segments":[],"categories_sizes":[],"default_left":[0,0,0,0,0,0,0,0,0,0,0,0,0,0,0,0,0],"id":2,"left_children":[1,3,5,-1,7,9,11,13,15,-1,-1,-1,-1,-1,-1,-1,-1],"loss_changes":[1.1188507E2,5.240982E0,1.4678444E1,0E0,1.4055166E0,6.5989685E-1,7.3722625E-1,2.7656353E-1,1.3491178E-1,0E0,0E0,0E0,0E0,0E0,0E0,0E0,0E0],"parents":[2147483647,0,0,1,1,2,2,4,4,5,5,6,6,7,7,8,8],"right_children":[2,4,6,-1,8,10,12,14,16,-1,-1,-1,-1,-1,-1,-1,-1],"split_conditions":[3.15E-5,6.27E-6,5E0,-5.2168813E-2,2E0,5E0,1.1E1,3E0,2.47E-5,2.0498084E-1,3.9325844E-2,4.0145986E-2,-3.2846715E-2,7.142857E-2,-0E0,-2.8925618E-2,-0E0],"split_indices":[1,1,2,0,0,6,2,2,1,0,0,0,0,0,0,0,0],"split_type":[0,0,0,0,0,0,0,0,0,0,0,0,0,0,0,0,0],"sum_hessian":[1.2448001E2,9.312001E1,3.1360003E1,8.48E1,8.320001E0,2.6880001E1,4.4800005E0,5.1200004E0,3.2000003E0,2.5600002E1,1.2800001E0,2.2400002E0,2.2400002E0,3.8400002E0,1.2800001E0,1.9200001E0,1.2800001E0],"tree_param":{"num_deleted":"0","num_feature":"12","num_nodes":"17","size_leaf_vector":"1"}},{"base_weights":[-2.6669794E-1,-5.094856E-1,6.704981E-1,-5.900621E-1,-1.8418688E-1,1.0116166E0,-4.882155E-2,-6.0184E-2,-0E0,4.054054E-1,-3.2004195E-1,5.008787E-1,1.5030674E0,-0E0,9.550562E-2,-9.846827E-3,-4.5105565E-2,6.435644E-2,-1.6853934E-2,8.4905654E-2,1.9477911E-1],"categories":[],"categories_nodes":[],"categories_segments":[],"categories_sizes":[],"default_left":[0,0,0,0,0,0,0,0,0,0,0,0,0,0,0,0,0,0,0,0,0],"id":3,"left_children":[1,3,5,7,9,11,-1,-1,-1,13,15,17,19,-1,-1,-1,-1,-1,-1,-1,-1],"loss_changes":[2.9183516E1,2.2389145E0,1.0824898E1,3.1871796E-1,1.805198E0,3.807312E0,0E0,0E0,0E0,1.0154874E0,2.563268E-1,1.3787212E0,6.192379E-1,0E0,0E0,0E0,0E0,0E0,0E0,0E0,0E0],"parents":[2147483647,0,0,1,1,2,2,3,3,4,4,5,5,9,9,10,10,11,11,12,12],"right_children":[2,4,6,8,10,12,-1,-1,-1,14,16,18,20,-1,-1,-1,-1,-1,-1,-1,-1],"split_conditions":[3.5464E-4,5.54E-5,1.6E1,1.75972E-4,1.44278E-4,1E0,-4.882155E-2,-6.0184E-2,-0E0,3E0,8.73726E-4,4.62E-6,2.07098E-3,-0E0,9.550562E-2,-9.846827E-3,-4.5105565E-2,6.435644E-2,-1.6853934E-2,8.4905654E-2,1.9477911E-1],"split_indices":[3,7,6,3,7,0,0,0,0,0,7,9,3,0,0,0,0,0,0,0,0],"split_type":[0,0,0,0,0,0,0,0,0,0,0,0,0,0,0,0,0,0,0,0,0],"sum_hessian":[1.2736001E2,1.0176001E2,2.5600002E1,8.000001E1,2.1760002E1,2.0160002E1,5.4400005E0,7.776E1,2.2400002E0,3.2000003E0,1.8560001E1,1.0880001E1,9.280001E0,1.9200001E0,1.2800001E0,8.64E0,9.920001E0,9.6E0,1.2800001E0,4.8E0,4.4800005E0],"tree_param":{"num_deleted":"0","num_feature":"12","num_nodes":"21","size_leaf_vector":"1"}},{"base_weights":[-3.938713E-1,-5.727387E-1,1.0114777E0,-5.9841175E-2,-0E0,1.5642993E0,-4.2288557E-2,1.3513513E-1,-3.2846715E-2,-1.6853934E-2,1.8708971E-1,-0E0,3.9325844E-2],"categories":[],"categories_nodes":[],"categories_segments":[],"categories_sizes":[],"default_left":[0,0,0,0,0,0,0,0,0,0,0,0,0],"id":4,"left_children":[1,3,5,-1,7,9,-1,11,-1,-1,-1,-1,-1],"loss_changes":[3.1406212E1,1.3960114E0,1.1955145E1,0E0,3.6318803E-1,6.5448227E0,0E0,2.0771332E-1,0E0,0E0,0E0,0E0,0E0],"parents":[2147483647,0,0,1,1,2,2,4,4,5,5,7,7],"right_children":[2,4,6,-1,8,10,-1,12,-1,-1,-1,-1,-1],"split_conditions":[1.52473E-4,5.899595E-3,4.76E-6,-5.9841175E-2,1.0353892E-2,4.86E-6,-4.2288557E-2,7.826853E-3,-3.2846715E-2,-1.6853934E-2,1.8708971E-1,-0E0,3.9325844E-2],"split_indices":[5,7,1,0,7,7,0,7,0,0,0,0,0],"split_type":[0,0,0,0,0,0,0,0,0,0,0,0,0],"sum_hessian":[1.2416001E2,1.1072001E2,1.3440001E1,1.0528001E2,5.4400005E0,9.920001E0,3.5200002E0,3.2000003E0,2.2400002E0,1.2800001E0,8.64E0,1.9200001E0,1.2800001E0],"tree_param":{"num_deleted":"0","num_feature":"12","num_nodes":"13","size_leaf_vector":"1"}},{"base_weights":[-3.7307897E-1,-4.9703592E-1,1.8149458E-1,-5.446193E-1,2.2348742E-1,-5.606385E-1,-1.0308272E-2,9.082275E-2,-1.9126906E-1,-5.7698753E-2,-2.339503E-2,-0E0,-1.54681085E-2,-0E0,-3.4339968E-2],"categories":[],"categories_nodes":[],"categories_segments":[],"categories_sizes":[],"default_left":[0,0,0,0,0,0,0,0,0,0,0,0,0,0,0],"id":5,"left_children":[1,3,-1,5,7,9,11,-1,13,-1,-1,-1,-1,-1,-1],"loss_changes":[3.268625E1,4.177494E0,0E0,6.449051E-1,2.3912318E0,8.755112E-2,4.1215986E-2,0E0,1.940507E-1,0E0,0E0,0E0,0E0,0E0,0E0],"parents":[2147483647,0,0,1,1,3,3,4,4,5,5,6,6,8,8],"right_children":[2,4,-1,6,8,10,12,-1,14,-1,-1,-1,-1,-1,-1],"split_conditions":[1.047267E-3,1.6E1,1.8149458E-1,1.2558819E-2,3.77E-5,5E0,2.6E1,9.082275E-2,1.016483E-3,-5.7698753E-2,-2.339503E-2,-0E0,-1.54681085E-2,-0E0,-3.4339968E-2],"split_indices":[11,6,0,3,5,6,2,0,5,0,0,0,0,0,0],"split_type":[0,0,0,0,0,0,0,0,0,0,0,0,0,0,0],"sum_hessian":[1.2078179E2,1.1488804E2,5.893753E0,1.0853631E2,6.351733E0,1.04444534E2,4.091772E0,2.626372E0,3.7253609E0,9.7644356E1,6.8001766E0,2.8487523E0,1.2430202E0,1.2689431E0,2.4564178E0],"tree_param":{"num_deleted":"0","num_feature":"12","num_nodes":"15","size_leaf_vector":"1"}},{"base_weights":[8.817073E-1,1.32454E0,-2.1203126E-1,1.6782856E0,-3.350716E-1,2.0596042E-1,-5.3804286E-2,1.7882342E0,1.4892724E-1,1.0706341E-2,-4.299011E-1,4.0394413E-1,-4.049241E-2,1.8098925E-1,-0E0,6.025336E-2,-3.3353876E-2,-4.846748E-2,-0E0,-9.221502E-3,5.9265256E-2],"categories":[],"categories_nodes":[],"categories_segments":[],"categories_sizes":[],"default_left":[0,0,0,0,0,0,0,0,0,0,0,0,0,0,0,0,0,0,0,0,0],"id":6,"left_children":[1,3,5,7,9,11,-1,13,15,-1,17,19,-1,-1,-1,-1,-1,-1,-1,-1,-1],"loss_changes":[6.5344124E1,5.6961487E1,5.477705E0,1.2177414E1,8.9428663E-1,2.087942E0,0E0,2.2686157E0,1.5802656E0,0E0,4.4916654E-1,1.5320685E0,0E0,0E0,0E0,0E0,0E0,0E0,0E0,0E0,0E0],"parents":[2147483647,0,0,1,1,2,2,3,3,4,4,5,5,7,7,8,8,10,10,11,11],"right_children":[2,4,6,8,10,12,-1,14,16,-1,18,20,-1,-1,-1,-1,-1,-1,-1,-1,-1],"split_conditions":[4.62E-6,3E0,8.18E-5,1.13251E-4,4E0,6.28E-6,-5.3804286E-2,3.37333E-4,4.057797E-3,1.0706341E-2,2.6E1,1.25E-5,-4.049241E-2,1.8098925E-1,-0E0,6.025336E-2,-3.3353876E-2,-4.846748E-2,-0E0,-9.221502E-3,5.9265256E-2],"split_indices":[1,6,1,3,6,5,0,5,3,0,2,1,0,0,0,0,0,0,0,0,0],"split_type":[0,0,0,0,0,0,0,0,0,0,0,0,0,0,0,0,0,0,0,0,0],"sum_hessian":[1.3297447E2,9.4902145E1,3.8072327E1,7.84716E1,1.6430544E1,1.6091389E1,2.198094E1,7.282453E1,5.647071E0,1.9591298E0,1.4471415E1,1.2898826E1,3.1925623E0,7.177269E1,1.0518394E0,3.3806E0,2.2664711E0,1.3190826E1,1.2805877E0,2.8945212E0,1.0004305E1],"tree_param":{"num_deleted":"0","num_feature":"12","num_nodes":"21","size_leaf_vector":"1"}},{"base_weights":[8.03743E-2,-4.4644883E-1,1.4208487E0,-5.0065022E-2,8.43275E-2,1.760254E-1,-0E0,3.579775E-1,-3.3137694E-2,2.6115796E-1,-3.965534E-2,4.9751785E-2,-0E0,5.6023866E-2,-1.1596962E-2],"categories":[],"categories_nodes":[],"categories_segments":[],"categories_sizes":[],"default_left":[0,0,0,0,0,0,0,0,0,0,0,0,0,0,0],"id":7,"left_children":[1,3,5,-1,7,-1,9,11,-1,13,-1,-1,-1,-1,-1],"loss_changes":[9.134661E1,2.880373E0,1.8210716E1,0E0,9.9536514E-1,0E0,8.5883856E-1,2.9923046E-1,0E0,7.327858E-1,0E0,0E0,0E0,0E0,0E0],"parents":[2147483647,0,0,1,1,2,2,4,4,6,6,7,7,9,9],"right_children":[2,4,6,-1,8,-1,10,12,-1,14,-1,-1,-1,-1,-1],"split_conditions":[2.51E-5,6.18E-6,3.90219E-4,-5.0065022E-2,6.92E-5,1.760254E-1,4.720532E-3,2E0,-3.3137694E-2,9E0,-3.965534E-2,4.9751785E-2,-0E0,5.6023866E-2,-1.1596962E-2],"split_indices":[1,1,3,0,3,0,3,0,0,0,0,0,0,0,0],"split_type":[0,0,0,0,0,0,0,0,0,0,0,0,0,0,0],"sum_hessian":[1.2771177E2,9.16519E1,3.6059864E1,8.404033E1,7.6115694E0,2.9197712E1,6.8621545E0,5.357225E0,2.254345E0,3.7393768E0,3.1227777E0,3.7412915E0,1.6159333E0,2.6895068E0,1.0498701E0],"tree_param":{"num_deleted":"0","num_feature":"12","num_nodes":"15","size_leaf_vector":"1"}},{"base_weights":[-2.793622E-1,-4.9850476E-1,5.369656E-1,-5.2487165E-1,2.2714527E-3,9.397548E-1,-2.1064176E-1,-5.914065E-1,-2.4768429E-1,5.755809E-2,-3.159685E-2,1.1615222E0,-3.1924825E-2,-0E0,-4.6602394E-2,-6.041492E-2,-0E0,-3.344256E-2,-0E0,1.2547944E-1,-0E0,-2.5093427E-2,3.6742263E-2],"categories":[],"categories_nodes":[],"categories_segments":[],"categories_sizes":[],"default_left":[0,0,0,0,0,0,0,0,0,0,0,0,0,0,0,0,0,0,0,0,0,0,0],"id":8,"left_children":[1,3,5,7,9,11,13,15,17,-1,-1,19,-1,21,-1,-1,-1,-1,-1,-1,-1,-1,-1],"loss_changes":[2.2520523E1,1.5754642E0,8.372614E0,1.2677097E0,1.0463865E0,5.5191383E0,7.24457E-1,3.35001E-1,5.878639E-1,0E0,0E0,1.4339046E0,0E0,5.1515746E-1,0E0,0E0,0E0,0E0,0E0,0E0,0E0,0E0,0E0],"parents":[2147483647,0,0,1,1,2,2,3,3,4,4,5,5,6,6,7,7,8,8,11,11,13,13],"right_children":[2,4,6,8,10,12,14,16,18,-1,-1,20,-1,22,-1,-1,-1,-1,-1,-1,-1,-1,-1],"split_conditions":[3.58454E-4,1.441219E-3,6.28E-6,5.54E-5,1E0,1E0,3.996739E-3,1.54295E-4,5E0,5.755809E-2,-3.159685E-2,9.912844E-3,-3.1924825E-2,4.83416E-4,-4.6602394E-2,-6.041492E-2,-0E0,-3.344256E-2,-0E0,1.2547944E-1,-0E0,-2.5093427E-2,3.6742263E-2],"split_indices":[3,5,5,7,0,8,7,3,0,0,0,7,0,7,0,0,0,0,0,0,0,0,0],"split_type":[0,0,0,0,0,0,0,0,0,0,0,0,0,0,0,0,0,0,0,0,0,0,0],"sum_hessian":[1.2474817E2,9.898334E1,2.5764832E1,9.4958E1,4.025337E0,1.709489E1,8.669939E0,7.466508E1,2.0292925E1,1.8533494E0,2.1719878E0,1.4905255E1,2.1896358E0,3.9607327E0,4.7092066E0,7.244556E1,2.2195146E0,1.6161749E1,4.131176E0,1.3610844E1,1.2944123E0,1.6454318E0,2.315301E0],"tree_param":{"num_deleted":"0","num_feature":"12","num_nodes":"23","size_leaf_vector":"1"}},{"base_weights":[-3.8226488E-1,-5.617647E-1,8.616477E-1,-5.891316E-1,5.2470118E-2,-0E0,1.6048978E-1,-5.981932E-2,-0E0,-4.383944E-2,4.5398673E-1,-0E0,8.0089934E-2],"categories":[],"categories_nodes":[],"categories_segments":[],"categories_sizes":[],"default_left":[0,0,0,0,0,0,0,0,0,0,0,0,0],"id":9,"left_children":[1,3,5,7,-1,9,-1,-1,-1,-1,11,-1,-1],"loss_changes":[2.7232206E1,3.3645592E0,1.0215155E1,4.5004654E-1,0E0,1.5544028E0,0E0,0E0,0E0,0E0,5.243807E-1,0E0,0E0],"parents":[2147483647,0,0,1,1,2,2,3,3,5,5,10,10],"right_children":[2,4,6,8,-1,10,-1,-1,-1,-1,12,-1,-1],"split_conditions":[2.79509E-4,2.5E1,6E0,3.26E-5,5.2470118E-2,3E0,1.6048978E-1,-5.981932E-2,-0E0,-4.383944E-2,3E0,-0E0,8.0089934E-2],"split_indices":[5,6,6,5,0,4,0,0,0,0,6,0,0],"split_type":[0,0,0,0,0,0,0,0,0,0,0,0,0],"sum_hessian":[1.2105083E2,1.06376564E2,1.4674264E1,1.0443504E2,1.9415226E0,6.8343525E0,7.8399115E0,1.0253765E2,1.8973925E0,3.8328218E0,3.0015306E0,1.5589316E0,1.4425989E0],"tree_param":{"num_deleted":"0","num_feature":"12","num_nodes":"13","size_leaf_vector":"1"}},{"base_weights":[-3.5950616E-1,-4.719515E-1,1.537997E-1,-5.2996546E-1,1.5551898E-1,-5.466971E-1,2.4397826E-2,-5.7846185E-2,-2.5536064E-2],"categories":[],"categories_nodes":[],"categories_segments":[],"categories_sizes":[],"default_left":[0,0,0,0,0,0,0,0,0],"id":10,"left_children":[1,3,-1,5,-1,7,-1,-1,-1],"loss_changes":[2.5627647E1,1.3397419E1,0E0,1.6709042E0,0E0,5.3282166E-1,0E0,0E0,0E0],"parents":[2147483647,0,0,1,1,3,3,5,5],"right_children":[2,4,-1,6,-1,8,-1,-1,-1],"split_conditions":[1.047267E-3,3.78E-5,1.537997E-1,4.3E1,1.5551898E-1,5E0,2.4397826E-2,-5.7846185E-2,-2.5536064E-2],"split_indices":[11,9,0,6,0,6,0,0,0],"split_type":[0,0,0,0,0,0,0,0,0],"sum_hessian":[1.2040875E2,1.1427595E2,6.132808E0,1.1169532E2,2.5806286E0,1.1010779E2,1.5875309E0,9.729103E1,1.2816759E1],"tree_param":{"num_deleted":"0","num_feature":"12","num_nodes":"9","size_leaf_vector":"1"}},{"base_weights":[7.4035966E-1,1.1356021E0,-4.0906626E-1,1.4186674E0,-3.4626055E-1,-6.695286E-2,-5.116265E-2,1.4689361E0,-3.2505643E-2,1.3626707E-2,-4.3326147E-2,4.5513447E-2,-3.998145E-2,1.5103202E-1,-2.7713938E-2,-9.137762E-3,3.736563E-2,2.3350205E-2,-2.2678062E-2],"categories":[],"categories_nodes":[],"categories_segments":[],"categories_sizes":[],"default_left":[0,0,0,0,0,0,0,0,0,0,0,0,0,0,0,0,0,0,0],"id":11,"left_children":[1,3,5,7,9,11,-1,13,-1,15,-1,17,-1,-1,-1,-1,-1,-1,-1],"loss_changes":[6.725649E1,4.677336E1,1.0124831E0,8.913452E0,7.670789E-1,5.744324E-1,0E0,7.345093E0,0E0,2.6453596E-1,0E0,3.9208186E-1,0E0,0E0,0E0,0E0,0E0,0E0,0E0],"parents":[2147483647,0,0,1,1,2,2,3,3,4,4,5,5,7,7,9,9,11,11],"right_children":[2,4,6,8,10,12,-1,14,-1,16,-1,18,-1,-1,-1,-1,-1,-1,-1],"split_conditions":[8.97E-5,3.73E-5,5.7493E-4,4.057797E-3,4.41E-5,6.29E-5,-5.116265E-2,5.96067E-4,-3.2505643E-2,4.02E-5,-4.3326147E-2,2.146152E-3,-3.998145E-2,1.5103202E-1,-2.7713938E-2,-9.137762E-3,3.736563E-2,2.3350205E-2,-2.2678062E-2],"split_indices":[7,1,7,3,1,1,0,5,0,1,0,3,0,0,0,0,0,0,0],"split_type":[0,0,0,0,0,0,0,0,0,0,0,0,0,0,0,0,0,0,0],"sum_hessian":[1.4623274E2,1.0914357E2,3.7089176E1,9.193994E1,1.7203627E1,9.86933E0,2.7219845E1,8.971903E1,2.2209125E0,2.3124762E0,1.4891151E1,6.5767164E0,3.2926137E0,8.798749E1,1.7315437E0,1.0039824E0,1.3084939E0,5.019083E0,1.5576336E0],"tree_param":{"num_deleted":"0","num_feature":"12","num_nodes":"19","size_leaf_vector":"1"}},{"base_weights":[4.4995956E-2,1.6134952E-1,-4.8836994E-1,-9.501576E-3,6.900839E-1,-1.5908478E-1,-5.6404214E-2,-1.2487906E-1,8.104604E-1,8.6600864E-1,-3.880736E-2,-4.431374E-2,2.66736E-2,-1.0428455E-2,-3.79824E-2,8.666312E-2,-0E0,9.8499484E-2,2.6642177E-2],"categories":[],"categories_nodes":[],"categories_segments":[],"categories_sizes":[],"default_left":[0,0,0,0,0,0,0,0,0,0,0,0,0,0,0,0,0,0,0],"id":12,"left_children":[1,3,5,7,9,11,-1,13,15,17,-1,-1,-1,-1,-1,-1,-1,-1,-1],"loss_changes":[7.804169E0,9.920938E0,1.4757061E-1,7.267438E0,5.454932E0,8.834004E-1,0E0,1.11019015E-1,1.2569809E-1,9.14896E-1,0E0,0E0,0E0,0E0,0E0,0E0,0E0,0E0,0E0],"parents":[2147483647,0,0,1,1,2,2,3,3,4,4,5,5,7,7,8,8,9,9],"right_children":[2,4,6,8,10,12,-1,14,16,18,-1,-1,-1,-1,-1,-1,-1,-1,-1],"split_conditions":[6.04299E-4,5.58E-5,2.07098E-3,2.52E-5,1E0,7E0,-5.6404214E-2,1.85E-5,3.43034E-4,9.73E-6,-3.880736E-2,-4.431374E-2,2.66736E-2,-1.0428455E-2,-3.79824E-2,8.666312E-2,-0E0,9.8499484E-2,2.6642177E-2],"split_indices":[3,7,3,3,10,2,0,7,3,5,0,0,0,0,0,0,0,0,0],"split_type":[0,0,0,0,0,0,0,0,0,0,0,0,0,0,0,0,0,0,0],"sum_hessian":[1.2725386E2,1.0552074E2,2.1733122E1,7.940711E1,2.611363E1,5.5857034E0,1.6147419E1,7.051809E1,8.88902E0,2.293365E1,3.1799822E0,4.0427637E0,1.5429399E0,6.7713875E1,2.8042126E0,7.8787265E0,1.0102935E0,1.8172142E1,4.7615066E0],"tree_param":{"num_deleted":"0","num_feature":"12","num_nodes":"19","size_leaf_vector":"1"}},{"base_weights":[-2.3169059E-1,-4.6856153E-1,5.228146E-1,-5.5234575E-1,-1.58612E-1,5.4753613E-2,1.1581044E0,-5.8021706E-1,4.1795447E-2,3.9036553E-2,-2.2858073E-1,5.32028E-1,-3.2053784E-1,1.24083534E-1,-0E0,-5.9393197E-2,-0E0,-3.2481533E-2,5.512899E-3,6.715467E-2,-0E0,-3.9943684E-2,-0E0],"categories":[],"categories_nodes":[],"categories_segments":[],"categories_sizes":[],"default_left":[0,0,0,0,0,0,0,0,0,0,0,0,0,0,0,0,0,0,0,0,0,0,0],"id":13,"left_children":[1,3,5,7,9,11,13,15,-1,-1,17,19,21,-1,-1,-1,-1,-1,-1,-1,-1,-1,-1],"loss_changes":[2.123615E1,1.9585533E0,7.686338E0,2.0955048E0,7.815709E-1,3.253389E0,6.7757034E-1,3.3695412E-1,0E0,0E0,6.9007194E-1,6.475146E-1,3.334322E-1,0E0,0E0,0E0,0E0,0E0,0E0,0E0,0E0,0E0,0E0],"parents":[2147483647,0,0,1,1,2,2,3,3,4,4,5,5,6,6,7,7,10,10,11,11,12,12],"right_children":[2,4,6,8,10,12,14,16,-1,-1,18,20,22,-1,-1,-1,-1,-1,-1,-1,-1,-1,-1],"split_conditions":[3.58454E-4,5.54E-5,4.62E-6,2.268343E-3,6.51E-5,6E0,7.545283E-3,1.75972E-4,4.1795447E-2,3.9036553E-2,7E0,1E0,1.4229216E-2,1.24083534E-1,-0E0,-5.9393197E-2,-0E0,-3.2481533E-2,5.512899E-3,6.715467E-2,-0E0,-3.9943684E-2,-0E0],"split_indices":[3,7,1,5,7,6,7,3,0,0,6,4,7,0,0,0,0,0,0,0,0,0,0],"split_type":[0,0,0,0,0,0,0,0,0,0,0,0,0,0,0,0,0,0,0,0,0,0,0],"sum_hessian":[1.1778979E2,9.029467E1,2.7495123E1,6.9502785E1,2.0791887E1,1.6597073E1,1.0898049E1,6.8258415E1,1.2443671E0,1.2837685E0,1.9508118E1,7.800419E0,8.796654E0,9.868896E0,1.0291541E0,6.607479E1,2.1836245E0,1.5828873E1,3.6792452E0,6.1455584E0,1.6548607E0,7.5765514E0,1.2201018E0],"tree_param":{"num_deleted":"0","num_feature":"12","num_nodes":"23","size_leaf_vector":"1"}},{"base_weights":[-3.4315172E-1,-5.425011E-1,8.8533694E-1,-5.682724E-1,-8.355908E-3,1.2424167E0,-1.9190307E-1,-5.7752263E-2,-0E0,7.444362E-2,-3.1762958E-2,5.642158E-2,1.422472E-1,-3.4132782E-2,-0E0,-0E0,3.7295073E-2,-1.02514E-2,5.1253606E-2],"categories":[],"categories_nodes":[],"categories_segments":[],"categories_sizes":[],"default_left":[0,0,0,0,0,0,0,0,0,0,0,0,0,0,0,0,0,0,0],"id":14,"left_children":[1,3,5,7,9,11,13,-1,-1,15,-1,17,-1,-1,-1,-1,-1,-1,-1],"loss_changes":[2.9533016E1,1.1433411E0,7.044198E0,4.1215706E-1,2.9206365E-1,1.977478E0,1.8685882E-1,0E0,0E0,2.2924641E-1,0E0,4.1892388E-1,0E0,0E0,0E0,0E0,0E0,0E0,0E0],"parents":[2147483647,0,0,1,1,2,2,3,3,4,4,5,5,6,6,9,9,11,11],"right_children":[2,4,6,8,10,12,14,-1,-1,16,-1,18,-1,-1,-1,-1,-1,-1,-1],"split_conditions":[2.79509E-4,5.899595E-3,4.76E-6,3.71E-5,1.0353892E-2,2.32729E-4,3E0,-5.7752263E-2,-0E0,9.192383E-3,-3.1762958E-2,1.73325E-3,1.422472E-1,-3.4132782E-2,-0E0,-0E0,3.7295073E-2,-1.02514E-2,5.1253606E-2],"split_indices":[5,7,1,5,7,7,4,0,0,7,0,5,0,0,0,0,0,0,0],"split_type":[0,0,0,0,0,0,0,0,0,0,0,0,0,0,0,0,0,0,0],"sum_hessian":[1.1981223E2,1.0367489E2,1.6137337E1,9.7979576E1,5.695317E0,1.2410898E1,3.7264392E0,9.608586E1,1.8937123E0,3.5167577E0,2.1785588E0,2.0884192E0,1.0322478E1,2.4398391E0,1.2866001E0,2.2085574E0,1.3082004E0,1.0232638E0,1.0651555E0],"tree_param":{"num_deleted":"0","num_feature":"12","num_nodes":"19","size_leaf_vector":"1"}},{"base_weights":[-3.5932747E-1,-4.6171054E-1,1.5098421E-1,-5.455726E-1,1.2832223E-1,-5.7941493E-2,-2.5743714E-1,1.648197E-3,-3.620146E-2],"categories":[],"categories_nodes":[],"categories_segments":[],"categories_sizes":[],"default_left":[0,0,0,0,0,0,0,0,0],"id":15,"left_children":[1,3,-1,5,-1,-1,7,-1,-1],"loss_changes":[2.1713493E1,1.5942774E1,0E0,5.279331E-1,0E0,0E0,5.6124514E-1,0E0,0E0],"parents":[2147483647,0,0,1,1,3,3,6,6],"right_children":[2,4,-1,6,-1,-1,8,-1,-1],"split_conditions":[3.78E-5,1.047267E-3,1.5098421E-1,5E0,1.2832223E-1,-5.7941493E-2,2.448034E-3,1.648197E-3,-3.620146E-2],"split_indices":[9,11,0,6,0,0,7,0,0],"split_type":[0,0,0,0,0,0,0,0,0],"sum_hessian":[1.1387972E2,1.0857648E2,5.303245E0,1.0419886E2,4.3776164E0,9.124152E1,1.2957331E1,2.3754296E0,1.0581901E1],"tree_param":{"num_deleted":"0","num_feature":"12","num_nodes":"9","size_leaf_vector":"1"}},{"base_weights":[7.009192E-1,1.0387175E0,-3.4570974E-1,1.2798367E0,-3.8584512E-1,1.4171748E-2,-5.3267427E-2,1.3201662E0,-3.1232193E-2,-0E0,-4.199726E-2,2.9298192E-1,-4.1711666E-2,1.351963E-1,-2.5321681E-2,4.9758475E-2,-0E0],"categories":[],"categories_nodes":[],"categories_segments":[],"categories_sizes":[],"default_left":[0,0,0,0,0,0,0,0,0,0,0,0,0,0,0,0,0],"id":16,"left_children":[1,3,5,7,9,11,-1,13,-1,-1,-1,15,-1,-1,-1,-1,-1],"loss_changes":[5.3550285E1,3.9806595E1,2.7262053E0,6.9900055E0,1.0041189E-1,1.4526955E0,0E0,5.5126343E0,0E0,0E0,0E0,7.470262E-1,0E0,0E0,0E0,0E0,0E0],"parents":[2147483647,0,0,1,1,2,2,3,3,4,4,5,5,7,7,11,11],"right_children":[2,4,6,8,10,12,-1,14,-1,-1,-1,16,-1,-1,-1,-1,-1],"split_conditions":[7.54E-5,3.73E-5,5.7493E-4,5.96067E-4,4.41E-5,6.29E-5,-5.3267427E-2,3.23E-5,-3.1232193E-2,-0E0,-4.199726E-2,4E0,-4.1711666E-2,1.351963E-1,-2.5321681E-2,4.9758475E-2,-0E0],"split_indices":[7,1,7,5,1,1,0,9,0,0,0,6,0,0,0,0,0],"split_type":[0,0,0,0,0,0,0,0,0,0,0,0,0,0,0,0,0],"sum_hessian":[1.4947685E2,1.1336873E2,3.6108124E1,9.730143E1,1.6067297E1,1.1588883E1,2.4519241E1,9.528725E1,2.014184E0,2.0138524E0,1.4053445E1,7.840185E0,3.7486985E0,9.3780174E1,1.5070686E0,5.408683E0,2.431502E0],"tree_param":{"num_deleted":"0","num_feature":"12","num_nodes":"17","size_leaf_vector":"1"}},{"base_weights":[7.534197E-2,-4.709096E-2,9.194086E-1,1.1133146E0,-6.4565346E-2,1.1781553E0,-2.6514912E-2,1.6139652E-1,-2.9034227E-1,7.981663E-2,1.3955857E-1,-0E0,5.6228217E-2,-3.9916564E-2,-0E0],"categories":[],"categories_nodes":[],"categories_segments":[],"categories_sizes":[],"default_left":[0,0,0,0,0,0,0,0,0,0,0,0,0,0,0],"id":17,"left_children":[1,-1,3,5,7,9,-1,11,13,-1,-1,-1,-1,-1,-1],"loss_changes":[6.0915398E1,0E0,1.04935875E1,4.540352E0,5.275999E-1,1.8498955E0,0E0,3.871246E-1,1.3094553E-1,0E0,0E0,0E0,0E0,0E0,0E0],"parents":[2147483647,0,0,2,2,3,3,4,4,5,5,7,7,8,8],"right_children":[2,-1,4,6,8,10,-1,12,14,-1,-1,-1,-1,-1,-1],"split_conditions":[1E0,-4.709096E-2,3.90219E-4,6E0,2.07098E-3,3E0,-2.6514912E-2,4E0,7E0,7.981663E-2,1.3955857E-1,-0E0,5.6228217E-2,-3.9916564E-2,-0E0],"split_indices":[0,0,3,6,3,0,0,6,0,0,0,0,0,0,0],"split_type":[0,0,0,0,0,0,0,0,0,0,0,0,0,0,0],"sum_hessian":[1.3066081E2,7.909917E1,5.156164E1,4.3443005E1,8.118639E0,4.190714E1,1.5358648E0,3.0220816E0,5.096557E0,1.6938995E1,2.4968143E1,2.0074406E0,1.014641E0,3.2828128E0,1.8137444E0],"tree_param":{"num_deleted":"0","num_feature":"12","num_nodes":"15","size_leaf_vector":"1"}},{"base_weights":[-2.5835598E-1,-4.7299004E-1,5.1575506E-1,-5.122023E-1,1.3983043E-1,8.225176E-1,-4.690368E-2,-5.330784E-1,-0E0,-1.3550845E-1,9.777093E-2,9.5251215E-1,-2.3547819E-2,-5.4398235E-2,-0E0,3.917889E-2,-1.3800973E-2,-0E0,-2.0134648E-2,1.07666254E-1,-1.7169785E-2],"categories":[],"categories_nodes":[],"categories_segments":[],"categories_sizes":[],"default_left":[0,0,0,0,0,0,0,0,0,0,0,0,0,0,0,0,0,0,0,0,0],"id":18,"left_children":[1,3,5,7,9,11,-1,13,15,17,-1,19,-1,-1,-1,-1,-1,-1,-1,-1,-1],"loss_changes":[1.90583E1,2.3870544E0,7.7715955E0,1.1619682E0,1.651064E0,3.1183357E0,0E0,6.0853195E-1,3.0586594E-1,1.0411918E-2,0E0,3.0103722E0,0E0,0E0,0E0,0E0,0E0,0E0,0E0,0E0,0E0],"parents":[2147483647,0,0,1,1,2,2,3,3,4,4,5,5,7,7,8,8,9,9,11,11],"right_children":[2,4,6,8,10,12,-1,14,16,18,-1,20,-1,-1,-1,-1,-1,-1,-1,-1,-1],"split_conditions":[4.0825E-4,6E0,1.6E1,2.268343E-3,1E0,4.62E-6,-4.690368E-2,1E1,1.91E-5,1.1E1,9.777093E-2,4E0,-2.3547819E-2,-5.4398235E-2,-0E0,3.917889E-2,-1.3800973E-2,-0E0,-2.0134648E-2,1.07666254E-1,-1.7169785E-2],"split_indices":[3,6,6,5,0,9,0,0,1,6,0,4,0,0,0,0,0,0,0,0,0],"split_type":[0,0,0,0,0,0,0,0,0,0,0,0,0,0,0,0,0,0,0,0,0],"sum_hessian":[1.1359956E2,8.959765E1,2.4001913E1,8.505336E1,4.544286E0,1.875107E1,5.250844E0,8.257278E1,2.4805896E0,3.2866402E0,1.2576455E0,1.7164528E1,1.5865412E0,8.133223E1,1.2405431E0,1.2818444E0,1.1987454E0,1.8146755E0,1.4719647E0,1.5877072E1,1.2874563E0],"tree_param":{"num_deleted":"0","num_feature":"12","num_nodes":"21","size_leaf_vector":"1"}},{"base_weights":[-3.4837198E-1,-5.4986924E-1,7.0795405E-1,-5.7825692E-2,-1.9650991E-1,9.1016847E-1,-3.3013385E-2,-0E0,-4.392874E-2,-0E0,1.117992E0,-2.9494708E-2,3.4478765E-2,-1.8052585E-2,2.0158222E-2,1.2971288E-1,-0E0],"categories":[],"categories_nodes":[],"categories_segments":[],"categories_sizes":[],"default_left":[0,0,0,0,0,0,0,0,0,0,0,0,0,0,0,0,0],"id":19,"left_children":[1,3,5,-1,7,9,-1,11,-1,13,15,-1,-1,-1,-1,-1,-1],"loss_changes":[2.4042122E1,5.095825E-1,4.1828384E0,0E0,5.4679585E-1,2.800249E0,0E0,5.694194E-1,0E0,1.4689654E-1,1.8612661E0,0E0,0E0,0E0,0E0,0E0,0E0],"parents":[2147483647,0,0,1,1,2,2,4,4,5,5,7,7,9,9,10,10],"right_children":[2,4,6,-1,8,10,-1,12,-1,14,16,-1,-1,-1,-1,-1,-1],"split_conditions":[2.79509E-4,2.448034E-3,3.77E-5,-5.7825692E-2,4E0,2.32729E-4,-3.3013385E-2,1E0,-4.392874E-2,1.73325E-3,1E1,-2.9494708E-2,3.4478765E-2,-1.8052585E-2,2.0158222E-2,1.2971288E-1,-0E0],"split_indices":[5,7,1,0,2,7,0,2,0,5,2,0,0,0,0,0,0],"split_type":[0,0,0,0,0,0,0,0,0,0,0,0,0,0,0,0,0],"sum_hessian":[1.1191194E2,9.4583015E1,1.7328922E1,8.594525E1,8.637761E0,1.4958373E1,2.3705494E0,4.4756618E0,4.1620994E0,2.9725816E0,1.1985792E1,2.056685E0,2.418977E0,1.3060167E0,1.6665648E0,9.881508E0,2.1042838E0],"tree_param":{"num_deleted":"0","num_feature":"12","num_nodes":"17","size_leaf_vector":"1"}},{"base_weights":[-2.9837278E-1,-4.1790962E-1,1.2295916E-1,-5.051283E-1,1.17460005E-1,-5.706575E-2,-7.4515236E-3,2.8100459E-2,-3.4454398E-2],"categories":[],"categories_nodes":[],"categories_segments":[],"categories_sizes":[],"default_left":[0,0,0,0,0,0,0,0,0],"id":20,"left_children":[1,3,-1,5,-1,-1,7,-1,-1],"loss_changes":[2.0150589E1,1.4372829E1,0E0,2.9378548E0,0E0,0E0,1.3359429E0,0E0,0E0],"parents":[2147483647,0,0,1,1,3,3,6,6],"right_children":[2,4,-1,6,-1,-1,8,-1,-1],"split_conditions":[2E0,1E0,1.2295916E-1,5E0,1.17460005E-1,-5.706575E-2,1E0,2.8100459E-2,-3.4454398E-2],"split_indices":[10,8,0,6,0,0,4,0,0],"split_type":[0,0,0,0,0,0,0,0,0],"sum_hessian":[1.10639984E2,1.03252716E2,7.3872647E0,9.851273E1,4.7399793E0,8.609819E1,1.2414549E1,5.935422E0,6.479127E0],"tree_param":{"num_deleted":"0","num_feature":"12","num_nodes":"9","size_leaf_vector":"1"}},{"base_weights":[6.6574985E-1,9.591875E-1,-4.1545013E-1,1.1387293E0,-3.95876E-2,-8.248749E-4,-5.226582E-2,1.1705745E0,-2.8802706E-2,-3.908056E-2,1.8672122E-1,1.1958005E-1,-2.0123513E-2,5.0276708E-2,-1.673584E-2],"categories":[],"categories_nodes":[],"categories_segments":[],"categories_sizes":[],"default_left":[0,0,0,0,0,0,0,0,0,0,0,0,0,0,0],"id":21,"left_children":[1,3,5,7,-1,9,-1,11,-1,-1,13,-1,-1,-1,-1],"loss_changes":[4.623837E1,2.8326332E1,1.1061954E0,5.2032166E0,0E0,7.0772016E-1,0E0,4.0549927E0,0E0,0E0,7.3882574E-1,0E0,0E0,0E0,0E0],"parents":[2147483647,0,0,1,1,2,2,3,3,5,5,7,7,10,10],"right_children":[2,4,6,8,-1,10,-1,12,-1,-1,14,-1,-1,-1,-1],"split_conditions":[1.63356E-4,4.41E-5,5.7493E-4,1E0,-3.95876E-2,2.76677E-4,-5.226582E-2,5.96067E-4,-2.8802706E-2,-3.908056E-2,6.29E-5,1.1958005E-1,-2.0123513E-2,5.0276708E-2,-1.673584E-2],"split_indices":[7,1,7,8,0,7,0,5,0,0,1,0,0,0,0],"split_type":[0,0,0,0,0,0,0,0,0,0,0,0,0,0,0],"sum_hessian":[1.4375569E2,1.1347693E2,3.0278765E1,1.00596954E2,1.2879978E1,7.2822957E0,2.299647E1,9.883126E1,1.7656937E0,3.0546396E0,4.227656E0,9.7467575E1,1.3636824E0,2.8689895E0,1.3586664E0],"tree_param":{"num_deleted":"0","num_feature":"12","num_nodes":"15","size_leaf_vector":"1"}},{"base_weights":[7.28367E-2,-4.4419035E-1,7.7869964E-1,-4.532512E-2,-1.3033838E-3,9.662989E-1,-9.1938235E-2,-0E0,-1.7232586E-2,1.0264565E-1,-2.5750486E-2,3.0609682E-2,-2.491407E-1,-0E0,-4.4614427E-2],"categories":[],"categories_nodes":[],"categories_segments":[],"categories_sizes":[],"default_left":[0,0,0,0,0,0,0,0,0,0,0,0,0,0,0],"id":22,"left_children":[1,3,5,-1,7,9,11,-1,-1,-1,-1,-1,13,-1,-1],"loss_changes":[4.4202858E1,5.0456047E-2,8.877615E0,0E0,5.5614103E-2,3.6682053E0,5.788643E-1,0E0,0E0,0E0,0E0,0E0,4.679776E-1,0E0,0E0],"parents":[2147483647,0,0,1,1,2,2,4,4,5,5,6,6,12,12],"right_children":[2,4,6,-1,8,10,12,-1,-1,-1,-1,-1,14,-1,-1],"split_conditions":[1E0,1.0353892E-2,3.90219E-4,-4.532512E-2,5E0,6E0,3E0,-0E0,-1.7232586E-2,1.0264565E-1,-2.5750486E-2,3.0609682E-2,1.63551E-4,-0E0,-4.4614427E-2],"split_indices":[0,7,3,0,2,6,2,0,0,0,0,0,7,0,0],"split_type":[0,0,0,0,0,0,0,0,0,0,0,0,0,0,0],"sum_hessian":[1.1968804E2,6.878312E1,5.090492E1,6.628634E1,2.496778E0,4.2308025E1,8.596896E0,1.1238382E0,1.37294E0,4.0792034E1,1.515992E0,1.3994119E0,7.197484E0,2.9459443E0,4.2515397E0],"tree_param":{"num_deleted":"0","num_feature":"12","num_nodes":"15","size_leaf_vector":"1"}},{"base_weights":[-2.2121508E-1,-3.8645247E-1,3.962354E-1,-5.075181E-1,-3.570009E-2,1.0773418E-1,1.0909957E-1,-5.3531003E-1,3.721191E-2,-2.184272E-1,2.6028618E-1,2.9696804E-1,-1.7981237E-1,-5.762611E-2,-2.0878743E-2,-0E0,-3.0250994E-2,7.564309E-2,-7.6300167E-3,-5.1093556E-4,4.909347E-2,-4.3467194E-2,1.8200148E-2],"categories":[],"categories_nodes":[],"categories_segments":[],"categories_sizes":[],"default_left":[0,0,0,0,0,0,0,0,0,0,0,0,0,0,0,0,0,0,0,0,0,0,0],"id":23,"left_children":[1,3,5,7,9,11,-1,13,-1,15,17,19,21,-1,-1,-1,-1,-1,-1,-1,-1,-1,-1],"loss_changes":[1.1883701E1,3.6355772E0,4.162406E0,1.83045E0,1.3737812E0,1.0678029E0,0E0,4.3187523E-1,0E0,2.7671927E-1,1.8428707E0,9.547374E-1,7.587568E-1,0E0,0E0,0E0,0E0,0E0,0E0,0E0,0E0,0E0,0E0],"parents":[2147483647,0,0,1,1,2,2,3,3,4,4,5,5,7,7,9,9,10,10,11,11,12,12],"right_children":[2,4,6,8,10,12,-1,14,-1,16,18,20,22,-1,-1,-1,-1,-1,-1,-1,-1,-1,-1],"split_conditions":[4E0,5.54E-5,5E0,2.268343E-3,3E0,3.226351E-3,1.0909957E-1,1E0,3.721191E-2,4.00526E-4,2.31847E-4,9.72E-6,2.3E1,-5.762611E-2,-2.0878743E-2,-0E0,-3.0250994E-2,7.564309E-2,-7.6300167E-3,-5.1093556E-4,4.909347E-2,-4.3467194E-2,1.8200148E-2],"split_indices":[2,7,0,5,0,7,0,2,0,7,1,7,2,0,0,0,0,0,0,0,0,0,0],"split_type":[0,0,0,0,0,0,0,0,0,0,0,0,0,0,0,0,0,0,0,0,0,0,0],"sum_hessian":[1.1527481E2,9.172493E1,2.3549885E1,6.6963005E1,2.4761923E1,1.7556643E1,5.993242E0,6.5652855E1,1.3101474E0,1.6435658E1,8.326266E0,1.1627243E1,5.9294004E0,5.663609E1,9.016769E0,5.082308E0,1.1353349E1,3.7137864E0,4.61248E0,3.7289553E0,7.8982873E0,4.230619E0,1.6987817E0],"tree_param":{"num_deleted":"0","num_feature":"12","num_nodes":"23","size_leaf_vector":"1"}},{"base_weights":[-3.4666112E-1,-5.5267745E-1,6.7569315E-1,-5.7240188E-2,-0E0,-1.641123E-2,1.1542511E-1,7.942321E-3,-1.876461E-2,-4.3638155E-2,3.506658E-1,5.0725073E-2,-0E0],"categories":[],"categories_nodes":[],"categories_segments":[],"categories_sizes":[],"default_left":[0,0,0,0,0,0,0,0,0,0,0,0,0],"id":24,"left_children":[1,3,5,-1,7,9,-1,-1,-1,-1,11,-1,-1],"loss_changes":[2.3833054E1,9.400177E-1,6.7707796E0,0E0,8.416563E-2,1.3077581E0,0E0,0E0,0E0,0E0,1.5386367E-1,0E0,0E0],"parents":[2147483647,0,0,1,1,2,2,4,4,5,5,10,10],"right_children":[2,4,6,-1,8,10,-1,-1,-1,-1,12,-1,-1],"split_conditions":[2.79509E-4,1.3E1,6E0,-5.7240188E-2,1E0,3E0,1.1542511E-1,7.942321E-3,-1.876461E-2,-4.3638155E-2,3.366704E-3,5.0725073E-2,-0E0],"split_indices":[5,6,6,0,8,4,0,0,0,0,5,0,0],"split_type":[0,0,0,0,0,0,0,0,0,0,0,0,0],"sum_hessian":[1.1206123E2,9.386509E1,1.8196142E1,9.03427E1,3.5223873E0,7.208724E0,1.0987418E1,2.09739E0,1.4249973E0,3.9533896E0,3.2553346E0,1.8926785E0,1.3626561E0],"tree_param":{"num_deleted":"0","num_feature":"12","num_nodes":"13","size_leaf_vector":"1"}},{"base_weights":[-2.8627393E-1,-4.230338E-1,1.1441944E-1,-4.9518776E-1,1.1645919E-1,-5.394053E-2,-1.8660673E-1,-0E0,-4.5815576E-2],"categories":[],"categories_nodes":[],"categories_segments":[],"categories_sizes":[],"default_left":[0,0,0,0,0,0,0,0,0],"id":25,"left_children":[1,3,-1,5,-1,-1,7,-1,-1],"loss_changes":[2.0650013E1,1.1132034E1,0E0,8.691616E-1,0E0,0E0,7.075939E-1,0E0,0E0],"parents":[2147483647,0,0,1,1,3,3,6,6],"right_children":[2,4,-1,6,-1,-1,8,-1,-1],"split_conditions":[1.047267E-3,3.78E-5,1.1441944E-1,5E0,1.1645919E-1,-5.394053E-2,1E0,-0E0,-4.5815576E-2],"split_indices":[11,9,0,2,0,0,4,0,0],"split_type":[0,0,0,0,0,0,0,0,0],"sum_hessian":[1.0566217E2,9.708229E1,8.57988E0,9.349226E1,3.5900264E0,8.003017E1,1.3462094E1,8.274887E0,5.1872077E0],"tree_param":{"num_deleted":"0","num_feature":"12","num_nodes":"9","size_leaf_vector":"1"}},{"base_weights":[5.485752E-1,8.274881E-1,-3.0761024E-1,1.0221738E0,-3.2199597E-1,-2.7797481E-2,-5.089558E-2,1.0509969E0,-2.7319489E-2,-0E0,-4.0524957E-1,-1.8657117E-1,1.2915182E-1,1.068712E-1,-1.0467958E-2,-0E0,-4.4851415E-2,-7.518794E-4,-3.845532E-2,4.2267315E-2,-0E0],"categories":[],"categories_nodes":[],"categories_segments":[],"categories_sizes":[],"default_left":[0,0,0,0,0,0,0,0,0,0,0,0,0,0,0,0,0,0,0,0,0],"id":26,"left_children":[1,3,5,7,9,11,-1,13,-1,-1,15,17,19,-1,-1,-1,-1,-1,-1,-1,-1],"loss_changes":[3.734297E1,2.6766197E1,1.8626177E0,4.2962494E0,6.3741374E-1,4.75567E-1,0E0,2.5667038E0,0E0,0E0,1.0629177E-1,1.7339072E-1,4.9457362E-1,0E0,0E0,0E0,0E0,0E0,0E0,0E0,0E0],"parents":[2147483647,0,0,1,1,2,2,3,3,4,4,5,5,7,7,10,10,11,11,12,12],"right_children":[2,4,6,8,10,12,-1,14,-1,-1,16,18,20,-1,-1,-1,-1,-1,-1,-1,-1],"split_conditions":[1E0,1.63356E-4,3E0,3.23E-5,3E0,2E0,-5.089558E-2,5.96067E-4,-2.7319489E-2,-0E0,4.83416E-4,2.52E-5,3.15E-5,1.068712E-1,-1.0467958E-2,-0E0,-4.4851415E-2,-7.518794E-4,-3.845532E-2,4.2267315E-2,-0E0],"split_indices":[0,7,0,9,6,0,0,5,0,0,7,7,1,0,0,0,0,0,0,0,0],"split_type":[0,0,0,0,0,0,0,0,0,0,0,0,0,0,0,0,0,0,0,0,0],"sum_hessian":[1.5425537E2,1.1680534E2,3.7450027E1,1.0030693E2,1.6498413E1,1.6948614E1,2.0501413E1,9.859345E1,1.7134764E0,2.3855286E0,1.41128845E1,9.962094E0,6.9865203E0,9.7568115E1,1.0253341E0,2.1548238E0,1.195806E1,6.8297906E0,3.1323037E0,2.9673455E0,4.0191746E0],"tree_param":{"num_deleted":"0","num_feature":"12","num_nodes":"21","size_leaf_vector":"1"}},{"base_weights":[5.531937E-2,-4.332226E-1,8.635125E-1,-4.7084447E-2,-0E0,9.981371E-1,-2.5240698E-1,2.6288792E-2,-3.367005E-2,1.03588E0,-0E0,-3.8501244E-2,-0E0,1.0779158E-1,3.234063E-3],"categories":[],"categories_nodes":[],"categories_segments":[],"categories_sizes":[],"default_left":[0,0,0,0,0,0,0,0,0,0,0,0,0,0,0],"id":27,"left_children":[1,3,5,-1,7,9,11,-1,-1,13,-1,-1,-1,-1,-1],"loss_changes":[4.9460846E1,1.3598318E0,7.6143074E0,0E0,5.8105254E-1,1.6422501E0,2.1594635E-1,0E0,0E0,1.1669846E0,0E0,0E0,0E0,0E0,0E0],"parents":[2147483647,0,0,1,1,2,2,4,4,5,5,6,6,9,9],"right_children":[2,4,6,-1,8,10,12,-1,-1,14,-1,-1,-1,-1,-1],"split_conditions":[1.63E-5,6.18E-6,2.07098E-3,-4.7084447E-2,1.24E-5,6E0,2.58045E-4,2.6288792E-2,-3.367005E-2,3.90219E-4,-0E0,-3.8501244E-2,-0E0,1.0779158E-1,3.234063E-3],"split_indices":[1,1,3,0,1,6,1,0,0,3,0,0,0,0,0],"split_type":[0,0,0,0,0,0,0,0,0,0,0,0,0,0,0],"sum_hessian":[1.2375064E2,7.688687E1,4.6863773E1,7.114787E1,5.7389956E0,4.226567E1,4.5980997E0,3.633313E0,2.1056828E0,4.0736523E1,1.5291485E0,3.1478841E0,1.4502153E0,3.8585E1,2.1515253E0],"tree_param":{"num_deleted":"0","num_feature":"12","num_nodes":"15","size_leaf_vector":"1"}},{"base_weights":[-2.4471791E-1,-4.5071164E-1,3.78113E-1,-5.394862E-1,-1.7430617E-1,-5.9010465E-2,9.399035E-1,-5.54431E-1,-0E0,3.9616562E-2,-2.4150814E-1,1.4654507E-1,-4.7456957E-2,1.0527792E-1,-0E0,-5.697254E-2,-0E0,-3.2936487E-2,1.5247775E-3,3.7832692E-2,-3.199674E-2],"categories":[],"categories_nodes":[],"categories_segments":[],"categories_sizes":[],"default_left":[0,0,0,0,0,0,0,0,0,0,0,0,0,0,0,0,0,0,0,0,0],"id":28,"left_children":[1,3,5,7,9,11,13,15,-1,-1,17,19,-1,-1,-1,-1,-1,-1,-1,-1,-1],"loss_changes":[1.429037E1,1.6528397E0,7.1271267E0,5.810108E-1,8.3248734E-1,1.4988886E0,1.2445068E0,3.808422E-1,0E0,0E0,6.380081E-1,1.1450521E0,0E0,0E0,0E0,0E0,0E0,0E0,0E0,0E0,0E0],"parents":[2147483647,0,0,1,1,2,2,3,3,4,4,5,5,6,6,7,7,10,10,11,11],"right_children":[2,4,6,8,10,12,14,16,-1,-1,18,20,-1,-1,-1,-1,-1,-1,-1,-1,-1],"split_conditions":[3.58454E-4,5.54E-5,4.76E-6,1E0,6.51E-5,2E0,1.2E1,1.75972E-4,-0E0,3.9616562E-2,6E0,1E0,-4.7456957E-2,1.0527792E-1,-0E0,-5.697254E-2,-0E0,-3.2936487E-2,1.5247775E-3,3.7832692E-2,-3.199674E-2],"split_indices":[3,7,1,4,7,4,6,3,0,0,6,8,0,0,0,0,0,0,0,0,0],"split_type":[0,0,0,0,0,0,0,0,0,0,0,0,0,0,0,0,0,0,0,0,0],"sum_hessian":[1.0993604E2,8.331995E1,2.6616093E1,6.1335632E1,2.1984316E1,1.4720045E1,1.1896048E1,5.9937088E1,1.3985445E0,1.274802E0,2.0709515E1,9.260055E0,5.45999E0,1.0503268E1,1.3927795E0,5.7909065E1,2.0280225E0,1.6775316E1,3.9341981E0,6.965578E0,2.2944767E0],"tree_param":{"num_deleted":"0","num_feature":"12","num_nodes":"21","size_leaf_vector":"1"}},{"base_weights":[-3.3841613E-1,-4.9831462E-1,7.7678025E-1,-5.5601156E-1,3.908698E-1,9.1597795E-1,-1.669634E-2,-5.644098E-2,-0E0,6.48079E-1,-1.0827759E-2,1.071703E0,-1.0452421E-2,7.551555E-2,-0E0,1.564336E-2,1.1836286E-1],"categories":[],"categories_nodes":[],"categories_segments":[],"categories_sizes":[],"default_left":[0,0,0,0,0,0,0,0,0,0,0,0,0,0,0,0,0],"id":29,"left_children":[1,3,5,7,9,11,-1,-1,-1,13,-1,15,-1,-1,-1,-1,-1],"loss_changes":[1.8954662E1,4.98283E0,2.171204E0,1.6333961E-1,1.0055344E0,2.4387407E0,0E0,0E0,0E0,5.5480123E-2,0E0,3.4763908E-1,0E0,0E0,0E0,0E0,0E0],"parents":[2147483647,0,0,1,1,2,2,3,3,4,4,5,5,9,9,11,11],"right_children":[2,4,6,8,10,12,-1,-1,-1,14,-1,16,-1,-1,-1,-1,-1],"split_conditions":[2E0,1.5E1,1E0,3.37333E-4,1.95E-5,5.65E-5,-1.669634E-2,-5.644098E-2,-0E0,3.2E1,-1.0827759E-2,2E0,-1.0452421E-2,7.551555E-2,-0E0,1.564336E-2,1.1836286E-1],"split_indices":[4,6,10,5,9,1,0,0,0,6,0,6,0,0,0,0,0],"split_type":[0,0,0,0,0,0,0,0,0,0,0,0,0,0,0,0,0],"sum_hessian":[1.054923E2,9.289746E1,1.2594842E1,8.794086E1,4.956603E0,1.1450468E1,1.144374E0,8.584125E1,2.099612E0,3.8336544E0,1.1229488E0,1.0337822E1,1.1126466E0,2.7891018E0,1.0445524E0,1.7438235E0,8.593998E0],"tree_param":{"num_deleted":"0","num_feature":"12","num_nodes":"17","size_leaf_vector":"1"}},{"base_weights":[-3.103097E-1,-3.9881304E-1,1.0814428E-1,-5.0844073E-1,3.2445643E-2,-5.2623177E-1,-1.9566797E-1,4.1527125E-1,-3.8165334E-1,-5.385768E-2,-9.797415E-4,2.4805438E-2,-4.2851016E-2,6.8797134E-2,-3.0682832E-2,-0E0,-4.7449943E-2],"categories":[],"categories_nodes":[],"categories_segments":[],"categories_sizes":[],"default_left":[0,0,0,0,0,0,0,0,0,0,0,0,0,0,0,0,0],"id":30,"left_children":[1,3,-1,5,7,9,11,13,15,-1,-1,-1,-1,-1,-1,-1,-1],"loss_changes":[1.206199E1,4.6777563E0,0E0,8.747101E-3,3.035727E0,1.6822052E-1,8.02763E-1,2.3642344E0,2.7681375E-1,0E0,0E0,0E0,0E0,0E0,0E0,0E0,0E0],"parents":[2147483647,0,0,1,1,3,3,4,4,5,5,6,6,7,7,8,8],"right_children":[2,4,-1,6,8,10,12,14,16,-1,-1,-1,-1,-1,-1,-1,-1],"split_conditions":[3.78E-5,4E0,1.0814428E-1,6.45412E-4,3.26E-5,4.933117E-3,1.122627E-3,2.45E-5,1E0,-5.385768E-2,-9.797415E-4,2.4805438E-2,-4.2851016E-2,6.8797134E-2,-3.0682832E-2,-0E0,-4.7449943E-2],"split_indices":[9,6,0,7,5,3,7,1,2,0,0,0,0,0,0,0,0],"split_type":[0,0,0,0,0,0,0,0,0,0,0,0,0,0,0,0,0],"sum_hessian":[9.8446075E1,9.323324E1,5.21284E0,7.5189644E1,1.8043592E1,6.930747E1,5.882169E0,1.0002511E1,8.041081E0,6.67229E1,2.584577E0,1.2741002E0,4.608069E0,7.780334E0,2.2221775E0,1.7860126E0,6.255069E0],"tree_param":{"num_deleted":"0","num_feature":"12","num_nodes":"17","size_leaf_vector":"1"}},{"base_weights":[5.208489E-1,7.820956E-1,-3.384314E-1,9.128354E-1,-1.9282739E-1,-6.128933E-2,-4.6772796E-1,9.847433E-1,1.1665095E-1,2.06018E-3,-3.7834018E-1,3.3031166E-2,-3.9611217E-2,-5.0561953E-2,-0E0,1.0073221E-1,-2.3534115E-2,2.7912766E-2,-1.1353988E-2,-6.0066753E-3,4.8779063E-2,-4.5736916E-2,-0E0,-1.0928794E-2,4.343153E-2],"categories":[],"categories_nodes":[],"categories_segments":[],"categories_sizes":[],"default_left":[0,0,0,0,0,0,0,0,0,0,0,0,0,0,0,0,0,0,0,0,0,0,0,0,0],"id":31,"left_children":[1,3,5,7,9,11,13,15,17,19,21,23,-1,-1,-1,-1,-1,-1,-1,-1,-1,-1,-1,-1,-1],"loss_changes":[3.490834E1,1.5569588E1,1.0036497E0,5.411789E0,6.942847E-1,6.0467005E-1,5.047593E-1,3.1434784E0,4.6714902E-1,4.0972263E-1,3.0745506E-2,7.338412E-1,0E0,0E0,0E0,0E0,0E0,0E0,0E0,0E0,0E0,0E0,0E0,0E0,0E0],"parents":[2147483647,0,0,1,1,2,2,3,3,4,4,5,5,6,6,7,7,8,8,9,9,10,10,11,11],"right_children":[2,4,6,8,10,12,14,16,18,20,22,24,-1,-1,-1,-1,-1,-1,-1,-1,-1,-1,-1,-1,-1],"split_conditions":[7.54E-5,3.15E-5,5.7493E-4,2.44E-5,8.18E-5,6.29E-5,2.9E1,1E0,4.86E-6,7.54E-5,7E0,2.76677E-4,-3.9611217E-2,-5.0561953E-2,-0E0,1.0073221E-1,-2.3534115E-2,2.7912766E-2,-1.1353988E-2,-6.0066753E-3,4.8779063E-2,-4.5736916E-2,-0E0,-1.0928794E-2,4.343153E-2],"split_indices":[7,1,7,3,1,1,2,10,7,1,0,7,0,0,0,0,0,0,0,0,0,0,0,0,0],"split_type":[0,0,0,0,0,0,0,0,0,0,0,0,0,0,0,0,0,0,0,0,0,0,0,0,0],"sum_hessian":[1.5342694E2,1.1813667E2,3.5290264E1,1.0464782E2,1.3488853E1,1.2691223E1,2.2599041E1,9.529481E1,9.353011E0,5.50494E0,7.983914E0,9.088356E0,3.6028676E0,2.1241053E1,1.3579894E0,9.40513E1,1.2435038E0,6.69398E0,2.6590304E0,4.356515E0,1.1484252E0,5.452314E0,2.5315998E0,6.0577474E0,3.0306087E0],"tree_param":{"num_deleted":"0","num_feature":"12","num_nodes":"25","size_leaf_vector":"1"}},{"base_weights":[9.818667E-2,1.8701631E-1,-3.8997847E-1,5.084435E-3,6.9481444E-1,-1.015336E-1,-5.220563E-2,-8.423763E-2,6.2560546E-1,8.981155E-2,-0E0,-4.4602465E-2,4.3656196E-2,-1.0167851E-2,-0E0,6.980456E-2,-0E0,-3.697322E-2,3.1750735E-2],"categories":[],"categories_nodes":[],"categories_segments":[],"categories_sizes":[],"default_left":[0,0,0,0,0,0,0,0,0,0,0,0,0,0,0,0,0,0,0],"id":32,"left_children":[1,3,5,7,9,11,-1,13,15,-1,17,-1,-1,-1,-1,-1,-1,-1,-1],"loss_changes":[5.325967E0,9.47669E0,3.6402106E-1,4.7063375E0,3.8630505E0,1.5108523E0,0E0,1.424006E-1,4.0037584E-1,0E0,8.435442E-1,0E0,0E0,0E0,0E0,0E0,0E0,0E0,0E0],"parents":[2147483647,0,0,1,1,2,2,3,3,4,4,5,5,7,7,8,8,10,10],"right_children":[2,4,6,8,10,12,-1,14,16,-1,18,-1,-1,-1,-1,-1,-1,-1,-1],"split_conditions":[6.04299E-4,7.54E-5,4.40149E-4,2.52E-5,4E0,1.63247E-4,-5.220563E-2,1E0,3.43034E-4,8.981155E-2,2.748184E-3,-4.4602465E-2,4.3656196E-2,-1.0167851E-2,-0E0,6.980456E-2,-0E0,-3.697322E-2,3.1750735E-2],"split_indices":[3,7,7,3,6,7,0,6,3,0,7,0,0,0,0,0,0,0,0],"split_type":[0,0,0,0,0,0,0,0,0,0,0,0,0,0,0,0,0,0,0],"sum_hessian":[1.2382063E2,1.0588569E2,1.7934942E1,7.9052666E1,2.6833023E1,7.0997677E0,1.0835174E1,6.877856E1,1.0274109E1,2.0648394E1,6.184631E0,4.947264E0,2.152504E0,6.082403E1,7.954525E0,8.9756365E0,1.2984724E0,2.8227034E0,3.3619275E0],"tree_param":{"num_deleted":"0","num_feature":"12","num_nodes":"19","size_leaf_vector":"1"}},{"base_weights":[-2.3327151E-1,-4.5990416E-1,4.05193E-1,-4.9198085E-1,6.8937517E-3,-0E0,9.204156E-1,-5.146924E-1,-0E0,4.0657304E-2,-2.5404124E-2,1.8777102E-1,-4.268473E-2,1.00126915E-1,-0E0,-5.275656E-2,-0E0,3.8746584E-2,-2.8600305E-2,3.42108E-2,-2.7487626E-2],"categories":[],"categories_nodes":[],"categories_segments":[],"categories_sizes":[],"default_left":[0,0,0,0,0,0,0,0,0,0,0,0,0,0,0,0,0,0,0,0,0],"id":33,"left_children":[1,3,5,7,9,11,13,15,17,-1,-1,19,-1,-1,-1,-1,-1,-1,-1,-1,-1],"loss_changes":[1.5148663E1,1.4041195E0,5.4738207E0,8.077774E-1,5.942503E-1,1.2635505E0,6.821728E-1,6.1626816E-1,4.7314763E-1,0E0,0E0,9.0290844E-1,0E0,0E0,0E0,0E0,0E0,0E0,0E0,0E0,0E0],"parents":[2147483647,0,0,1,1,2,2,3,3,4,4,5,5,6,6,7,7,8,8,11,11],"right_children":[2,4,6,8,10,12,14,16,18,-1,-1,20,-1,-1,-1,-1,-1,-1,-1,-1,-1],"split_conditions":[3.58454E-4,6E0,1E0,8.08456E-4,1.3E1,1.6E1,6.92648E-4,1.1E1,1E0,4.0657304E-2,-2.5404124E-2,1.379954E-3,-4.268473E-2,1.00126915E-1,-0E0,-5.275656E-2,-0E0,3.8746584E-2,-2.8600305E-2,3.42108E-2,-2.7487626E-2],"split_indices":[3,6,0,5,6,6,5,0,0,0,0,5,0,0,0,0,0,0,0,0,0],"split_type":[0,0,0,0,0,0,0,0,0,0,0,0,0,0,0,0,0,0,0,0,0],"sum_hessian":[1.0335938E2,7.696312E1,2.6396261E1,7.2991554E1,3.9715683E0,1.5222399E1,1.1173863E1,6.969808E1,3.2934744E0,2.2153656E0,1.7562028E0,1.101586E1,4.2065396E0,1.0045076E1,1.1287866E0,6.852825E1,1.1698261E0,1.2846844E0,2.00879E0,9.168348E0,1.8475103E0],"tree_param":{"num_deleted":"0","num_feature":"12","num_nodes":"21","size_leaf_vector":"1"}},{"base_weights":[-3.3270058E-1,-5.3326803E-1,6.459418E-1,-5.5646934E-2,2.1663098E-2,6.4953845E-3,9.099268E-2,-3.4449816E-2,4.9303725E-1,6.8370454E-2,-0E0],"categories":[],"categories_nodes":[],"categories_segments":[],"categories_sizes":[],"default_left":[0,0,0,0,0,0,0,0,0,0,0],"id":34,"left_children":[1,3,5,-1,-1,7,-1,-1,9,-1,-1],"loss_changes":[1.897754E1,1.6298695E0,2.2644033E0,0E0,0E0,1.1454161E0,0E0,0E0,1.8000114E-1,0E0,0E0],"parents":[2147483647,0,0,1,1,2,2,5,5,8,8],"right_children":[2,4,6,-1,-1,8,-1,-1,10,-1,-1],"split_conditions":[2.79509E-4,2.5E1,6E0,-5.5646934E-2,2.1663098E-2,3E0,9.099268E-2,-3.4449816E-2,1.82461E-4,6.8370454E-2,-0E0],"split_indices":[5,6,6,0,0,4,0,0,7,0,0],"split_type":[0,0,0,0,0,0,0,0,0,0,0],"sum_hessian":[9.559375E1,7.994742E1,1.5646331E1,7.8319984E1,1.6274351E0,5.275041E0,1.037129E1,2.5521908E0,2.72285E0,1.5610255E0,1.1618247E0],"tree_param":{"num_deleted":"0","num_feature":"12","num_nodes":"11","size_leaf_vector":"1"}},{"base_weights":[-3.0999908E-1,-3.895792E-1,9.8015815E-2,-4.9277365E-1,6.846862E-2,-5.197475E-1,-1.6470087E-1,3.9873645E-1,-3.2928857E-1,-5.3213455E-2,-4.2213756E-3,8.698667E-3,-4.170059E-2,6.42693E-2,-2.6975429E-2,-0E0,-4.5065634E-2],"categories":[],"categories_nodes":[],"categories_segments":[],"categories_sizes":[],"default_left":[0,0,0,0,0,0,0,0,0,0,0,0,0,0,0,0,0],"id":35,"left_children":[1,3,-1,5,7,9,11,13,15,-1,-1,-1,-1,-1,-1,-1,-1],"loss_changes":[9.735647E0,4.530175E0,0E0,2.8058624E-1,2.2389104E0,1.0301018E-1,6.819268E-1,1.87252E0,4.4477022E-1,0E0,0E0,0E0,0E0,0E0,0E0,0E0,0E0],"parents":[2147483647,0,0,1,1,3,3,4,4,5,5,6,6,7,7,8,8],"right_children":[2,4,-1,6,8,10,12,14,16,-1,-1,-1,-1,-1,-1,-1,-1],"split_conditions":[3.78E-5,5E0,9.8015815E-2,6.69009E-4,3.26E-5,4.720532E-3,1E0,2E0,7E0,-5.3213455E-2,-4.2213756E-3,8.698667E-3,-4.170059E-2,6.42693E-2,-2.6975429E-2,-0E0,-4.5065634E-2],"split_indices":[9,6,0,7,5,3,0,0,6,0,0,0,0,0,0,0,0],"split_type":[0,0,0,0,0,0,0,0,0,0,0,0,0,0,0,0,0],"sum_hessian":[9.534036E1,9.049498E1,4.8453884E0,7.47158E1,1.5779179E1,6.7361244E1,7.354554E0,9.307087E0,6.4720917E0,6.45818E1,2.7794418E0,2.8537133E0,4.500841E0,7.3808103E0,1.9262764E0,1.0596672E0,5.4124246E0],"tree_param":{"num_deleted":"0","num_feature":"12","num_nodes":"17","size_leaf_vector":"1"}},{"base_weights":[5.066533E-1,7.290337E-1,-3.5479292E-1,8.7438E-1,-9.3953805E-3,-3.795633E-1,-0E0,8.964938E-1,-2.3997018E-2,8.5017756E-2,-4.3750145E-2,-1.6909602E-1,-5.303819E-2,9.113664E-2,-0E0,2.1031804E-2,-8.052501E-3,-0E0,-3.546174E-2],"categories":[],"categories_nodes":[],"categories_segments":[],"categories_sizes":[],"default_left":[0,0,0,0,0,0,0,0,0,0,0,0,0,0,0,0,0,0,0],"id":36,"left_children":[1,3,5,7,9,11,-1,13,-1,15,-1,17,-1,-1,-1,-1,-1,-1,-1],"loss_changes":[2.9565723E1,1.3528481E1,4.1487932E-1,2.9614563E0,1.0028075E0,5.6221724E-1,0E0,1.4315491E0,0E0,4.0192008E-1,0E0,4.4859505E-1,0E0,0E0,0E0,0E0,0E0,0E0,0E0],"parents":[2147483647,0,0,1,1,2,2,3,3,4,4,5,5,7,7,9,9,11,11],"right_children":[2,4,6,8,10,12,-1,14,-1,16,-1,18,-1,-1,-1,-1,-1,-1,-1],"split_conditions":[6.93E-5,1E0,2.9E1,2.039782E-3,1.32119E-4,1.008192E-3,-0E0,1E0,-2.3997018E-2,3E0,-4.3750145E-2,1E0,-5.303819E-2,9.113664E-2,-0E0,2.1031804E-2,-8.052501E-3,-0E0,-3.546174E-2],"split_indices":[7,0,2,3,3,7,0,8,0,0,0,2,0,0,0,0,0,0,0],"split_type":[0,0,0,0,0,0,0,0,0,0,0,0,0,0,0,0,0,0,0],"sum_hessian":[1.5218288E2,1.2148028E2,3.0702593E1,1.01990395E2,1.9489885E1,2.9642645E1,1.059947E0,1.0054163E2,1.4487623E0,1.5339689E1,4.1501956E0,1.4200999E1,1.5441647E1,9.8994286E1,1.5473486E0,1.0373247E1,4.966442E0,7.791072E0,6.4099274E0],"tree_param":{"num_deleted":"0","num_feature":"12","num_nodes":"19","size_leaf_vector":"1"}},{"base_weights":[7.506913E-2,-4.2544216E-1,7.227728E-1,-4.354996E-2,-0E0,8.7386364E-1,-5.0881445E-2,8.9558315E-1,-0E0,1.2000711E-1,-2.6971814E-1,6.662231E-2,1.0240064E-1,4.641953E-2,-1.3771738E-2,-0E0,-4.122854E-2],"categories":[],"categories_nodes":[],"categories_segments":[],"categories_sizes":[],"default_left":[0,0,0,0,0,0,0,0,0,0,0,0,0,0,0,0,0],"id":37,"left_children":[1,3,5,-1,-1,7,9,11,-1,13,15,-1,-1,-1,-1,-1,-1],"loss_changes":[3.907913E1,1.9828987E-1,6.601042E0,0E0,0E0,7.429123E-1,4.108634E-1,9.486008E-2,0E0,5.380746E-1,3.29363E-1,0E0,0E0,0E0,0E0,0E0,0E0],"parents":[2147483647,0,0,1,1,2,2,5,5,6,6,7,7,9,9,10,10],"right_children":[2,4,6,-1,-1,8,10,12,-1,14,16,-1,-1,-1,-1,-1,-1],"split_conditions":[1E0,1.0353892E-2,3.90219E-4,-4.354996E-2,-0E0,5E0,3.33623E-4,3E0,-0E0,1.1E1,2E0,6.662231E-2,1.0240064E-1,4.641953E-2,-1.3771738E-2,-0E0,-4.122854E-2],"split_indices":[0,7,3,0,0,6,7,0,0,2,2,0,0,0,0,0,0],"split_type":[0,0,0,0,0,0,0,0,0,0,0,0,0,0,0,0,0],"sum_hessian":[1.1911366E2,6.685289E1,5.2260777E1,6.482342E1,2.029473E0,4.4208576E1,8.052198E0,4.2992596E1,1.2159837E0,3.3652713E0,4.686927E0,1.7939823E1,2.505277E1,2.100101E0,1.2651703E0,1.029355E0,3.6575716E0],"tree_param":{"num_deleted":"0","num_feature":"12","num_nodes":"17","size_leaf_vector":"1"}},{"base_weights":[-1.7729673E-1,-3.8477388E-1,3.5096657E-1,-5.028709E-1,-6.133505E-2,5.413456E-1,-4.410857E-2,-5.3779376E-1,3.6574975E-2,2.4347757E-1,-1.6476846E-1,6.0373497E-1,-1.4605924E-2,-5.5561412E-2,-0E0,6.105947E-2,-1.6824113E-2,-3.0747605E-2,1.1974036E-2,6.7181215E-2,-1.3850348E-2],"categories":[],"categories_nodes":[],"categories_segments":[],"categories_sizes":[],"default_left":[0,0,0,0,0,0,0,0,0,0,0,0,0,0,0,0,0,0,0,0,0],"id":38,"left_children":[1,3,5,7,9,11,-1,13,-1,15,17,19,-1,-1,-1,-1,-1,-1,-1,-1,-1],"loss_changes":[1.1366535E1,2.560647E0,4.4835935E0,1.810646E0,6.6535234E-1,1.2935939E0,0E0,5.1524353E-1,0E0,9.495286E-1,8.3241594E-1,1.4542885E0,0E0,0E0,0E0,0E0,0E0,0E0,0E0,0E0,0E0],"parents":[2147483647,0,0,1,1,2,2,3,3,4,4,5,5,7,7,9,9,10,10,11,11],"right_children":[2,4,6,8,10,12,-1,14,-1,16,18,20,-1,-1,-1,-1,-1,-1,-1,-1,-1],"split_conditions":[3.58454E-4,5.54E-5,1.6E1,2.268343E-3,1.44278E-4,4E0,-4.410857E-2,1.75972E-4,3.6574975E-2,4.7E-6,6E0,4.62E-6,-1.4605924E-2,-5.5561412E-2,-0E0,6.105947E-2,-1.6824113E-2,-3.0747605E-2,1.1974036E-2,6.7181215E-2,-1.3850348E-2],"split_indices":[3,7,6,5,7,4,0,3,0,3,6,9,0,0,0,0,0,0,0,0,0],"split_type":[0,0,0,0,0,0,0,0,0,0,0,0,0,0,0,0,0,0,0,0,0],"sum_hessian":[1.02436554E2,7.4326775E1,2.8109777E1,5.3111084E1,2.121569E1,2.32991E1,4.810677E0,5.179474E1,1.3163459E0,3.978947E0,1.7236744E1,2.208306E1,1.2160416E0,5.0163055E1,1.6316847E0,2.6177132E0,1.3612337E0,1.262246E1,4.6142836E0,2.0888292E1,1.1947672E0],"tree_param":{"num_deleted":"0","num_feature":"12","num_nodes":"21","size_leaf_vector":"1"}},{"base_weights":[-3.0082864E-1,-5.349666E-2,5.6213456E-1,-0E0,8.995244E-1,-4.023869E-2,4.06516E-1,1.0286274E-1,-0E0,5.735607E-2,-0E0],"categories":[],"categories_nodes":[],"categories_segments":[],"categories_sizes":[],"default_left":[0,0,0,0,0,0,0,0,0,0,0],"id":39,"left_children":[1,-1,3,5,7,-1,9,-1,-1,-1,-1],"loss_changes":[1.8571857E1,0E0,3.519238E0,1.3728536E0,1.4835882E0,0E0,2.5990862E-1,0E0,0E0,0E0,0E0],"parents":[2147483647,0,0,2,2,3,3,4,4,6,6],"right_children":[2,-1,4,6,8,-1,10,-1,-1,-1,-1],"split_conditions":[3.77E-5,-5.349666E-2,6E0,3E0,1.8E1,-4.023869E-2,3.366704E-3,1.0286274E-1,-0E0,5.735607E-2,-0E0],"split_indices":[5,0,6,4,2,0,5,0,0,0,0],"split_type":[0,0,0,0,0,0,0,0,0,0,0],"sum_hessian":[9.0739105E1,7.197924E1,1.8759865E1,7.3889728E0,1.1370893E1,3.5323424E0,3.85663E0,9.980221E0,1.3906713E0,2.4785662E0,1.378064E0],"tree_param":{"num_deleted":"0","num_feature":"12","num_nodes":"11","size_leaf_vector":"1"}},{"base_weights":[-2.8425467E-1,-4.0411982E-1,9.665029E-2,-4.791954E-1,9.075578E-2,-5.01234E-1,2.4600212E-2,-5.1201146E-2,-0E0],"categories":[],"categories_nodes":[],"categories_segments":[],"categories_sizes":[],"default_left":[0,0,0,0,0,0,0,0,0],"id":40,"left_children":[1,3,-1,5,-1,7,-1,-1,-1],"loss_changes":[1.3754588E1,8.3698635E0,0E0,1.4846344E0,0E0,5.987911E-1,0E0,0E0,0E0],"parents":[2147483647,0,0,1,1,3,3,5,5],"right_children":[2,4,-1,6,-1,8,-1,-1,-1],"split_conditions":[1.047267E-3,3.78E-5,9.665029E-2,4.3E1,9.075578E-2,1E0,2.4600212E-2,-5.1201146E-2,-0E0],"split_indices":[11,9,0,6,0,8,0,0,0],"split_type":[0,0,0,0,0,0,0,0,0],"sum_hessian":[9.181777E1,8.446168E1,7.356096E0,8.054983E1,3.9118476E0,7.8993126E1,1.5567015E0,7.7965904E1,1.0272257E0],"tree_param":{"num_deleted":"0","num_feature":"12","num_nodes":"9","size_leaf_vector":"1"}},{"base_weights":[4.5936102E-1,6.564057E-1,-3.0845547E-1,7.7418417E-1,-2.9318193E-1,-9.2735685E-2,-4.6048504E-1,8.426882E-1,-0E0,-0E0,-3.976368E-2,1.2381037E-2,-4.1085627E-2,-5.1725943E-2,-0E0,8.557298E-2,-0E0,1.8894864E-2,-3.7319846E-2,-2.7865767E-2,4.4704404E-2,-2.5577282E-3,5.620231E-2],"categories":[],"categories_nodes":[],"categories_segments":[],"categories_sizes":[],"default_left":[0,0,0,0,0,0,0,0,0,0,0,0,0,0,0,0,0,0,0,0,0,0,0],"id":41,"left_children":[1,3,5,7,9,11,13,15,17,19,-1,21,-1,-1,-1,-1,-1,-1,-1,-1,-1,-1,-1],"loss_changes":[2.2146662E1,1.3295998E1,6.6441727E-1,5.362751E0,4.2787516E-1,6.7384815E-1,5.1191163E-1,1.0228424E0,6.487027E-1,5.243532E-1,0E0,4.8226777E-1,0E0,0E0,0E0,0E0,0E0,0E0,0E0,0E0,0E0,0E0,0E0],"parents":[2147483647,0,0,1,1,2,2,3,3,4,4,5,5,6,6,7,7,8,8,9,9,11,11],"right_children":[2,4,6,8,10,12,14,16,18,20,-1,22,-1,-1,-1,-1,-1,-1,-1,-1,-1,-1,-1],"split_conditions":[7.54E-5,4.41E-5,1.008192E-3,2.52E-5,8.18E-5,6.29E-5,2.9E1,3.73E-5,9.93039E-4,7.54E-5,-3.976368E-2,1.9E-5,-4.1085627E-2,-5.1725943E-2,-0E0,8.557298E-2,-0E0,1.8894864E-2,-3.7319846E-2,-2.7865767E-2,4.4704404E-2,-2.5577282E-3,5.620231E-2],"split_indices":[7,1,7,3,1,1,2,1,3,1,0,1,0,0,0,0,0,0,0,0,0,0,0],"split_type":[0,0,0,0,0,0,0,0,0,0,0,0,0,0,0,0,0,0,0,0,0,0,0],"sum_hessian":[1.4406248E2,1.1521789E2,2.8844604E1,1.0305478E2,1.2163105E1,1.3616927E1,1.5227678E1,9.445456E1,8.600218E0,3.0729942E0,9.090111E0,9.4148E0,4.202127E0,1.38778925E1,1.3497851E0,9.297914E1,1.4754179E0,6.1462393E0,2.453978E0,1.870148E0,1.2028463E0,8.401632E0,1.0131674E0],"tree_param":{"num_deleted":"0","num_feature":"12","num_nodes":"23","size_leaf_vector":"1"}},{"base_weights":[9.466291E-3,-4.1544542E-1,7.110729E-1,-4.758538E-2,3.5441257E-2,8.5477704E-1,-1.6324875E-1,4.9403567E-2,-1.5214734E-1,8.819024E-2,-0E0,4.081321E-2,-3.9598837E-2,-3.5163898E-2,-0E0,-1.47606945E-2,5.554968E-2],"categories":[],"categories_nodes":[],"categories_segments":[],"categories_sizes":[],"default_left":[0,0,0,0,0,0,0,0,0,0,0,0,0,0,0,0,0],"id":42,"left_children":[1,3,5,-1,7,9,11,-1,13,-1,-1,15,-1,-1,-1,-1,-1],"loss_changes":[3.5014774E1,2.200739E0,6.013706E0,0E0,9.00344E-1,8.4357643E-1,4.8099E-1,0E0,2.0629746E-1,0E0,0E0,4.9919692E-1,0E0,0E0,0E0,0E0,0E0],"parents":[2147483647,0,0,1,1,2,2,4,4,5,5,6,6,8,8,11,11],"right_children":[2,4,6,-1,8,10,12,-1,14,-1,-1,16,-1,-1,-1,-1,-1],"split_conditions":[3.14E-5,6.27E-6,3.90219E-4,-4.758538E-2,1.24E-5,5E0,2.07098E-3,4.9403567E-2,1.63E-5,8.819024E-2,-0E0,8.4674E-4,-3.9598837E-2,-3.5163898E-2,-0E0,-1.47606945E-2,5.554968E-2],"split_indices":[1,1,3,0,1,6,3,0,1,0,0,3,0,0,0,0,0],"split_type":[0,0,0,0,0,0,0,0,0,0,0,0,0,0,0,0,0],"sum_hessian":[1.1596033E2,7.190439E1,4.4055935E1,6.436254E1,7.5418477E0,3.833776E1,5.7181745E0,2.7260716E0,4.8157763E0,3.7070015E1,1.2677479E0,2.1218076E0,3.596367E0,2.1635783E0,2.6521978E0,1.103106E0,1.0187017E0],"tree_param":{"num_deleted":"0","num_feature":"12","num_nodes":"17","size_leaf_vector":"1"}},{"base_weights":[-1.9827987E-1,-3.8423997E-1,1.637069E-1,-4.724632E-1,-7.309511E-2,2.7485618E-1,-4.195192E-2,-5.093753E-1,3.589016E-2,-3.3957255E-1,3.2821742E-1,9.897591E-2,6.4727736E-1,-5.4647196E-2,-1.0645169E-2,-0E0,-4.005788E-2,6.728446E-2,-0E0,-0E0,5.0919987E-2,8.616255E-3,8.916851E-2],"categories":[],"categories_nodes":[],"categories_segments":[],"categories_sizes":[],"default_left":[0,0,0,0,0,0,0,0,0,0,0,0,0,0,0,0,0,0,0,0,0,0,0],"id":43,"left_children":[1,3,5,7,9,11,-1,13,-1,15,17,19,21,-1,-1,-1,-1,-1,-1,-1,-1,-1,-1],"loss_changes":[6.6962986E0,1.5048637E0,2.0910854E0,1.6887321E0,1.8032699E0,1.4489393E0,0E0,3.660059E-1,0E0,2.158047E-1,6.8433553E-1,8.303395E-1,5.8044267E-1,0E0,0E0,0E0,0E0,0E0,0E0,0E0,0E0,0E0,0E0],"parents":[2147483647,0,0,1,1,2,2,3,3,4,4,5,5,7,7,9,9,10,10,11,11,12,12],"right_children":[2,4,6,8,10,12,-1,14,-1,16,18,20,22,-1,-1,-1,-1,-1,-1,-1,-1,-1,-1],"split_conditions":[2E0,5.54E-5,1.6E1,2.268343E-3,3E0,1.1E1,-4.195192E-2,1E0,3.589016E-2,1.44278E-4,6.27057E-4,2.451944E-3,1E0,-5.4647196E-2,-1.0645169E-2,-0E0,-4.005788E-2,6.728446E-2,-0E0,-0E0,5.0919987E-2,8.616255E-3,8.916851E-2],"split_indices":[2,7,6,5,0,2,0,2,0,7,7,7,0,0,0,0,0,0,0,0,0,0,0],"split_type":[0,0,0,0,0,0,0,0,0,0,0,0,0,0,0,0,0,0,0,0,0,0,0],"sum_hessian":[9.687163E1,6.48879E1,3.1983727E1,4.9099762E1,1.5788138E1,2.7806183E1,4.177544E0,4.777371E1,1.326051E0,1.0282946E1,5.505193E0,2.0228489E1,7.577694E0,4.2446632E1,5.327076E0,1.6893989E0,8.593547E0,2.4405713E0,3.0646217E0,1.6742905E1,3.485585E0,3.1250918E0,4.452602E0],"tree_param":{"num_deleted":"0","num_feature":"12","num_nodes":"23","size_leaf_vector":"1"}},{"base_weights":[-2.7872083E-1,-5.27394E-1,3.9971092E-1,-5.4011047E-1,-0E0,-0E0,8.312417E-1,-5.5429257E-2,-8.559415E-2,-2.2489893E-1,5.0816894E-1,6.087493E-3,9.244983E-2,-0E0,-2.475438E-2,-0E0,-4.469909E-2,7.627235E-2,-0E0],"categories":[],"categories_nodes":[],"categories_segments":[],"categories_sizes":[],"default_left":[0,0,0,0,0,0,0,0,0,0,0,0,0,0,0,0,0,0,0],"id":44,"left_children":[1,3,5,7,-1,9,11,-1,13,15,17,-1,-1,-1,-1,-1,-1,-1,-1],"loss_changes":[1.5291367E1,5.87656E-1,4.1711907E0,7.709503E-2,0E0,1.491126E0,3.0801725E-1,0E0,1.2237844E-1,3.5283682E-1,4.3319356E-1,0E0,0E0,0E0,0E0,0E0,0E0,0E0,0E0],"parents":[2147483647,0,0,1,1,2,2,3,3,5,5,6,6,8,8,9,9,10,10],"right_children":[2,4,6,8,-1,10,12,-1,14,16,18,-1,-1,-1,-1,-1,-1,-1,-1],"split_conditions":[4E0,4E0,2E0,2.324807E-3,-0E0,2.1E1,6E0,-5.5429257E-2,4.933117E-3,1.003903E-3,4E0,6.087493E-3,9.244983E-2,-0E0,-2.475438E-2,-0E0,-4.469909E-2,7.627235E-2,-0E0],"split_indices":[6,4,4,3,0,6,6,0,3,3,2,0,0,0,0,0,0,0,0],"split_type":[0,0,0,0,0,0,0,0,0,0,0,0,0,0,0,0,0,0,0],"sum_hessian":[8.913501E1,6.5847496E1,2.3287508E1,6.477453E1,1.0729687E0,1.2250428E1,1.1037081E1,6.1641327E1,3.1332023E0,8.797135E0,3.4532924E0,1.8600075E0,9.1770735E0,1.2017139E0,1.9314883E0,5.177626E0,3.6195097E0,1.9994963E0,1.453796E0],"tree_param":{"num_deleted":"0","num_feature":"12","num_nodes":"19","size_leaf_vector":"1"}},{"base_weights":[-2.6763952E-1,-4.0111235E-1,8.871741E-2,-4.6905574E-1,8.4031954E-2,-5.3489443E-2,-1.1385255E-1,3.014254E-3,-4.3037962E-2],"categories":[],"categories_nodes":[],"categories_segments":[],"categories_sizes":[],"default_left":[0,0,0,0,0,0,0,0,0],"id":45,"left_children":[1,3,-1,5,-1,-1,7,-1,-1],"loss_changes":[1.3559125E1,6.7563066E0,0E0,1.4346542E0,0E0,0E0,8.3504164E-1,0E0,0E0],"parents":[2147483647,0,0,1,1,3,3,6,6],"right_children":[2,4,-1,6,-1,-1,8,-1,-1],"split_conditions":[1.047267E-3,3.78E-5,8.871741E-2,5E0,8.4031954E-2,-5.3489443E-2,2E0,3.014254E-3,-4.3037962E-2],"split_indices":[11,9,0,6,0,0,4,0,0],"split_type":[0,0,0,0,0,0,0,0,0],"sum_hessian":[8.789081E1,7.946552E1,8.425289E0,7.601886E1,3.4466581E0,6.273081E1,1.3288053E1,8.358383E0,4.92967E0],"tree_param":{"num_deleted":"0","num_feature":"12","num_nodes":"9","size_leaf_vector":"1"}},{"base_weights":[4.0527937E-1,5.965929E-1,-3.42036E-1,7.205229E-1,-2.2574319E-1,-6.641576E-2,-5.2672923E-2,7.8183055E-1,1.19713105E-1,-0E0,-3.8993873E-2,3.018031E-2,-3.9324433E-2,7.927623E-2,-0E0,2.619935E-2,-2.7621662E-2,-1.056429E-2,4.5122918E-2,-1.3016005E-2,2.7046844E-2],"categories":[],"categories_nodes":[],"categories_segments":[],"categories_sizes":[],"default_left":[0,0,0,0,0,0,0,0,0,0,0,0,0,0,0,0,0,0,0,0,0],"id":46,"left_children":[1,3,5,7,9,11,-1,13,15,17,-1,19,-1,-1,-1,-1,-1,-1,-1,-1,-1],"loss_changes":[2.1339653E1,1.2382256E1,1.207E0,3.312252E0,6.5242606E-1,6.183177E-1,0E0,8.11306E-1,6.4437664E-1,4.035951E-1,0E0,4.660033E-1,0E0,0E0,0E0,0E0,0E0,0E0,0E0,0E0,0E0],"parents":[2147483647,0,0,1,1,2,2,3,3,4,4,5,5,7,7,8,8,9,9,11,11],"right_children":[2,4,6,8,10,12,-1,14,16,18,-1,20,-1,-1,-1,-1,-1,-1,-1,-1,-1],"split_conditions":[1.07107E-4,2.51E-5,1.008192E-3,1.88E-5,8.18E-5,6.29E-5,-5.2672923E-2,2E0,4.057797E-3,7.54E-5,-3.8993873E-2,2.32729E-4,-3.9324433E-2,7.927623E-2,-0E0,2.619935E-2,-2.7621662E-2,-1.056429E-2,4.5122918E-2,-1.3016005E-2,2.7046844E-2],"split_indices":[7,1,7,3,1,1,0,4,3,1,0,7,0,0,0,0,0,0,0,0,0],"split_type":[0,0,0,0,0,0,0,0,0,0,0,0,0,0,0,0,0,0,0,0,0],"sum_hessian":[1.4715419E2,1.17773865E2,2.938033E1,1.0293152E2,1.4842345E1,1.3147349E1,1.6232979E1,9.2508896E1,1.0422626E1,5.909585E0,8.93276E0,9.317487E0,3.8298626E0,9.1252426E1,1.2564706E0,8.720749E0,1.7018765E0,4.7131147E0,1.19647E0,4.4778285E0,4.8396583E0],"tree_param":{"num_deleted":"0","num_feature":"12","num_nodes":"21","size_leaf_vector":"1"}},{"base_weights":[1.9814383E-2,8.8158906E-2,-5.1511418E-2,-0E0,4.0255904E-1,-1.0412616E-1,3.6460805E-1,4.6724093E-1,-1.5620293E-2,-8.529457E-3,-3.72564E-2,5.3166665E-2,-3.7305016E-2,5.127092E-2,-0E0],"categories":[],"categories_nodes":[],"categories_segments":[],"categories_sizes":[],"default_left":[0,0,0,0,0,0,0,0,0,0,0,0,0,0,0],"id":47,"left_children":[1,3,-1,5,7,9,11,13,-1,-1,-1,-1,-1,-1,-1],"loss_changes":[4.069167E0,2.770032E0,0E0,3.2520194E0,9.9105906E-1,7.9945266E-2,2.5473468E0,5.165162E-1,0E0,0E0,0E0,0E0,0E0,0E0,0E0],"parents":[2147483647,0,0,1,1,3,3,4,4,5,5,6,6,7,7],"right_children":[2,4,-1,6,8,10,12,14,-1,-1,-1,-1,-1,-1,-1],"split_conditions":[2.07098E-3,1.88E-5,-5.1511418E-2,5.7E-5,1E0,2.55E-5,6E0,5.88651E-3,-1.5620293E-2,-8.529457E-3,-3.72564E-2,5.3166665E-2,-3.7305016E-2,5.127092E-2,-0E0],"split_indices":[3,3,0,7,10,7,6,7,0,0,0,0,0,0,0],"split_type":[0,0,0,0,0,0,0,0,0,0,0,0,0,0,0],"sum_hessian":[1.1602091E2,1.0407606E2,1.1944854E1,8.246737E1,2.1608688E1,6.3744545E1,1.8722824E1,2.0242197E1,1.366491E0,6.192206E1,1.8224876E0,1.5932103E1,2.7907217E0,1.8691294E1,1.5509026E0],"tree_param":{"num_deleted":"0","num_feature":"12","num_nodes":"15","size_leaf_vector":"1"}},{"base_weights":[-1.9435132E-1,-4.1655982E-1,2.8964567E-1,-4.6390703E-1,1.14690796E-1,4.2221165E-1,-4.1023746E-2,-5.061986E-2,2.635392E-1,-1.5199527E-1,1.00042306E-1,4.9445274E-1,-2.493831E-2,9.349861E-2,-1.7773269E-2,-0E0,-2.3589151E-2,5.7424735E-2,-2.3649005E-2],"categories":[],"categories_nodes":[],"categories_segments":[],"categories_sizes":[],"default_left":[0,0,0,0,0,0,0,0,0,0,0,0,0,0,0,0,0,0,0],"id":48,"left_children":[1,3,5,7,9,11,-1,-1,13,15,-1,17,-1,-1,-1,-1,-1,-1,-1],"loss_changes":[1.0696282E1,1.918828E0,2.92413E0,2.1465635E0,1.710749E0,1.4701557E0,0E0,0E0,1.4030243E0,3.008058E-2,0E0,1.681571E0,0E0,0E0,0E0,0E0,0E0,0E0,0E0],"parents":[2147483647,0,0,1,1,2,2,3,3,4,4,5,5,8,8,9,9,11,11],"right_children":[2,4,6,8,10,12,-1,-1,14,16,-1,18,-1,-1,-1,-1,-1,-1,-1],"split_conditions":[3.58454E-4,6E0,1.6E1,2E0,3E0,4E0,-4.1023746E-2,-5.061986E-2,1E0,1.1E1,1.00042306E-1,4.62E-6,-2.493831E-2,9.349861E-2,-1.7773269E-2,-0E0,-2.3589151E-2,5.7424735E-2,-2.3649005E-2],"split_indices":[3,6,6,4,0,4,0,0,0,6,0,9,0,0,0,0,0,0,0],"split_type":[0,0,0,0,0,0,0,0,0,0,0,0,0,0,0,0,0,0,0],"sum_hessian":[9.78047E1,6.778608E1,3.0018625E1,6.316143E1,4.624646E0,2.6005632E1,4.0129933E0,6.0484455E1,2.6769776E0,3.4389133E0,1.1857326E0,2.4271238E1,1.7343936E0,1.2891108E0,1.3878667E0,1.7629768E0,1.6759366E0,2.2595768E1,1.6754706E0],"tree_param":{"num_deleted":"0","num_feature":"12","num_nodes":"19","size_leaf_vector":"1"}},{"base_weights":[-2.7382556E-1,-4.696144E-1,5.8976096E-1,-5.2812684E-2,5.463614E-1,7.097925E-1,-1.9349396E-2,1.01206295E-1,-0E0,-0E0,7.877939E-1,9.271427E-2,5.1333993E-3],"categories":[],"categories_nodes":[],"categories_segments":[],"categories_sizes":[],"default_left":[0,0,0,0,0,0,0,0,0,0,0,0,0],"id":49,"left_children":[1,3,5,-1,7,9,-1,-1,-1,-1,11,-1,-1],"loss_changes":[1.5256054E1,4.529852E0,1.8630061E0,0E0,1.089344E0,7.825637E-1,0E0,0E0,0E0,0E0,8.517618E-1,0E0,0E0],"parents":[2147483647,0,0,1,1,2,2,4,4,5,5,10,10],"right_children":[2,4,6,-1,8,10,-1,-1,-1,-1,12,-1,-1],"split_conditions":[2E0,2.5E1,5.65E-5,-5.2812684E-2,1.0353892E-2,2.43E-5,-1.9349396E-2,1.01206295E-1,-0E0,-0E0,1E1,9.271427E-2,5.1333993E-3],"split_indices":[4,6,1,0,7,7,0,0,0,0,2,0,0],"split_type":[0,0,0,0,0,0,0,0,0,0,0,0,0],"sum_hessian":[8.926575E1,7.342599E1,1.5839759E1,7.011985E1,3.3061414E0,1.4329121E1,1.5106384E0,1.6727822E0,1.6333593E0,1.5302169E0,1.2798903E1,1.0082725E1,2.716179E0],"tree_param":{"num_deleted":"0","num_feature":"12","num_nodes":"13","size_leaf_vector":"1"}},{"base_weights":[-2.818836E-1,-3.941265E-1,8.2039475E-2,-4.8347682E-1,6.532101E-1,-5.299237E-2,-1.3692158E-1,8.147979E-2,-0E0,7.588472E-3,-3.308728E-2],"categories":[],"categories_nodes":[],"categories_segments":[],"categories_sizes":[],"default_left":[0,0,0,0,0,0,0,0,0,0,0],"id":50,"left_children":[1,3,-1,5,7,-1,9,-1,-1,-1,-1],"loss_changes":[1.0171878E1,7.161134E0,0E0,7.653694E-1,5.9341764E-1,0E0,5.6436604E-1,0E0,0E0,0E0,0E0],"parents":[2147483647,0,0,1,1,3,3,4,4,6,6],"right_children":[2,4,-1,6,8,-1,10,-1,-1,-1,-1],"split_conditions":[2E0,4.62E-6,8.2039475E-2,5E0,2E1,-5.299237E-2,1.1E1,8.147979E-2,-0E0,7.588472E-3,-3.308728E-2],"split_indices":[10,9,0,6,6,0,6,0,0,0,0],"split_type":[0,0,0,0,0,0,0,0,0,0,0],"sum_hessian":[8.213093E1,7.524382E1,6.887108E0,7.001712E1,5.2267065E0,6.0236614E1,9.780504E0,4.074377E0,1.1523292E0,3.5794632E0,6.2010407E0],"tree_param":{"num_deleted":"0","num_feature":"12","num_nodes":"11","size_leaf_vector":"1"}},{"base_weights":[3.7543124E-1,5.466425E-1,-2.5343165E-1,6.360572E-1,-3.9656166E-2,-3.3575084E-2,-3.5720535E-2,6.959442E-1,-4.4147663E-2,2.4515815E-2,-3.6621943E-2,7.225448E-2,-3.183421E-2,-1.9221961E-2,1.7537078E-2],"categories":[],"categories_nodes":[],"categories_segments":[],"categories_sizes":[],"default_left":[0,0,0,0,0,0,0,0,0,0,0,0,0,0,0],"id":51,"left_children":[1,3,5,7,-1,9,-1,11,-1,13,-1,-1,-1,-1,-1],"loss_changes":[1.5933062E1,9.988625E0,5.04863E-1,7.13369E0,0E0,4.0766364E-1,0E0,3.0485687E0,0E0,3.1656384E-1,0E0,0E0,0E0,0E0,0E0],"parents":[2147483647,0,0,1,1,2,2,3,3,5,5,7,7,9,9],"right_children":[2,4,6,8,-1,10,-1,12,-1,14,-1,-1,-1,-1,-1],"split_conditions":[2.52E-5,3E0,1E0,3E0,-3.9656166E-2,9.93039E-4,-3.5720535E-2,5.96067E-4,-4.4147663E-2,8.17E-5,-3.6621943E-2,7.225448E-2,-3.183421E-2,-1.9221961E-2,1.7537078E-2],"split_indices":[3,0,6,6,0,3,0,5,0,3,0,0,0,0,0],"split_type":[0,0,0,0,0,0,0,0,0,0,0,0,0,0,0],"sum_hessian":[1.454777E2,1.1502264E2,3.0455061E1,1.05695724E2,9.326915E0,1.1522744E1,1.8932318E1,1.00738014E2,4.9577093E0,8.924304E0,2.5984406E0,9.878409E1,1.9539299E0,2.2459595E0,6.6783442E0],"tree_param":{"num_deleted":"0","num_feature":"12","num_nodes":"15","size_leaf_vector":"1"}},{"base_weights":[4.4229664E-2,-4.4113675E-1,5.793541E-1,-4.538878E-2,-0E0,6.931799E-1,-1.8409158E-1,2.4857438E-1,7.7148324E-1,-0E0,-3.7331644E-2,4.036234E-2,-0E0,7.895885E-2,-0E0,-2.6708303E-2,5.116725E-2],"categories":[],"categories_nodes":[],"categories_segments":[],"categories_sizes":[],"default_left":[0,0,0,0,0,0,0,0,0,0,0,0,0,0,0,0,0],"id":52,"left_children":[1,3,5,-1,-1,7,9,11,13,15,-1,-1,-1,-1,-1,-1,-1],"loss_changes":[2.8890423E1,2.6578236E-1,4.9457417E0,0E0,0E0,1.0308838E0,2.8562203E-1,2.963999E-1,1.6526794E-1,5.8652854E-1,0E0,0E0,0E0,0E0,0E0,0E0,0E0],"parents":[2147483647,0,0,1,1,2,2,5,5,6,6,7,7,8,8,9,9],"right_children":[2,4,6,-1,-1,8,10,12,14,16,-1,-1,-1,-1,-1,-1,-1],"split_conditions":[6.18E-6,1.0353892E-2,6.04299E-4,-4.538878E-2,-0E0,3.73E-5,4.40149E-4,1.91E-5,1.3E1,2.51E-5,-3.7331644E-2,4.036234E-2,-0E0,7.895885E-2,-0E0,-2.6708303E-2,5.116725E-2],"split_indices":[1,7,3,0,0,1,7,1,0,7,0,0,0,0,0,0,0],"split_type":[0,0,0,0,0,0,0,0,0,0,0,0,0,0,0,0,0],"sum_hessian":[1.0997384E2,5.7224113E1,5.2749725E1,5.53165E1,1.9076117E0,4.6515453E1,6.23427E0,8.23423E0,3.8281223E1,3.0472329E0,3.1870372E0,4.632109E0,3.6021214E0,3.6788193E1,1.4930308E0,1.9836403E0,1.0635926E0],"tree_param":{"num_deleted":"0","num_feature":"12","num_nodes":"17","size_leaf_vector":"1"}},{"base_weights":[-1.9774999E-1,-2.919166E-1,5.88026E-1,-4.4656044E-1,-2.916496E-2,8.3502464E-2,-2.2553926E-2,-5.1427054E-1,-1.2183472E-1,2.8175852E-1,-1.03550784E-1,-5.3602487E-2,-0E0,-2.0008422E-2,-0E0,-0E0,7.052833E-2,-3.6443375E-2,7.0545226E-5],"categories":[],"categories_nodes":[],"categories_segments":[],"categories_sizes":[],"default_left":[0,0,0,0,0,0,0,0,0,0,0,0,0,0,0,0,0,0,0],"id":53,"left_children":[1,3,5,7,9,-1,-1,11,13,15,17,-1,-1,-1,-1,-1,-1,-1,-1],"loss_changes":[6.898198E0,3.2054982E0,2.3409345E0,7.986603E-1,6.9309634E-1,0E0,0E0,6.2947655E-1,1.9742063E-1,9.667432E-1,9.5566535E-1,0E0,0E0,0E0,0E0,0E0,0E0,0E0,0E0],"parents":[2147483647,0,0,1,1,2,2,3,3,4,4,7,7,8,8,9,9,10,10],"right_children":[2,4,6,8,10,-1,-1,12,14,16,18,-1,-1,-1,-1,-1,-1,-1,-1],"split_conditions":[1.1E1,5.54E-5,1.5E1,1E0,1.63247E-4,8.3502464E-2,-2.2553926E-2,1.52473E-4,3.57413E-4,9.04E-5,6.18219E-4,-5.3602487E-2,-0E0,-2.0008422E-2,-0E0,-0E0,7.052833E-2,-3.6443375E-2,7.0545226E-5],"split_indices":[2,7,6,2,7,0,0,5,1,7,7,0,0,0,0,0,0,0,0],"split_type":[0,0,0,0,0,0,0,0,0,0,0,0,0,0,0,0,0,0,0],"sum_hessian":[9.356763E1,8.440337E1,9.164252E0,5.171407E1,3.26893E1,7.4912863E0,1.672966E0,4.1275837E1,1.0438233E1,4.7440696E0,2.794523E1,4.0144577E1,1.1312623E0,8.48704E0,1.9511933E0,2.46363E0,2.2804396E0,8.992121E0,1.895311E1],"tree_param":{"num_deleted":"0","num_feature":"12","num_nodes":"19","size_leaf_vector":"1"}},{"base_weights":[-2.529271E-1,-4.8771417E-1,4.5759144E-1,-5.2932393E-2,3.1948498E-1,-0E0,6.9490457E-1,9.33531E-2,-1.2324194E-2,-3.771121E-2,2.8215578E-1,7.835596E-2,-0E0,6.6358455E-2,-1.9010356E-2],"categories":[],"categories_nodes":[],"categories_segments":[],"categories_sizes":[],"default_left":[0,0,0,0,0,0,0,0,0,0,0,0,0,0,0],"id":54,"left_children":[1,3,5,-1,7,9,11,-1,-1,-1,13,-1,-1,-1,-1],"loss_changes":[1.4270145E1,2.3557243E0,2.1742597E0,0E0,1.246814E0,8.6868924E-1,9.187579E-1,0E0,0E0,0E0,1.1846567E0,0E0,0E0,0E0,0E0],"parents":[2147483647,0,0,1,1,2,2,4,4,5,5,6,6,10,10],"right_children":[2,4,6,-1,8,10,12,-1,-1,-1,14,-1,-1,-1,-1],"split_conditions":[3.77E-5,2.5E1,6E0,-5.2932393E-2,1.0353892E-2,1.802294E-3,1.8E1,9.33531E-2,-1.2324194E-2,-3.771121E-2,2E0,7.835596E-2,-0E0,6.6358455E-2,-1.9010356E-2],"split_indices":[5,6,6,0,7,5,2,0,0,0,0,0,0,0,0],"split_type":[0,0,0,0,0,0,0,0,0,0,0,0,0,0,0],"sum_hessian":[8.428269E1,6.399604E1,2.028665E1,6.1611614E1,2.384425E0,7.2706456E0,1.3016005E1,1.2398567E0,1.1445682E0,2.8584988E0,4.412147E0,1.1626954E1,1.3890508E0,2.9144309E0,1.4977161E0],"tree_param":{"num_deleted":"0","num_feature":"12","num_nodes":"15","size_leaf_vector":"1"}},{"base_weights":[-2.5748622E-1,-4.0287426E-1,7.8496896E-2,-4.617611E-1,4.546321E-1,-5.2401472E-2,-4.770598E-2,-0E0,6.1927747E-2,3.1360887E-2,-2.4784708E-2],"categories":[],"categories_nodes":[],"categories_segments":[],"categories_sizes":[],"default_left":[0,0,0,0,0,0,0,0,0,0,0],"id":55,"left_children":[1,3,-1,5,7,-1,9,-1,-1,-1,-1],"loss_changes":[1.2061089E1,3.6826801E0,0E0,1.4293432E0,3.0186135E-1,0E0,7.5516844E-1,0E0,0E0,0E0,0E0],"parents":[2147483647,0,0,1,1,3,3,4,4,6,6],"right_children":[2,4,-1,6,8,-1,10,-1,-1,-1,-1],"split_conditions":[2E0,1E0,7.8496896E-2,5E0,2.152221E-3,-5.2401472E-2,2.448034E-3,-0E0,6.1927747E-2,3.1360887E-2,-2.4784708E-2],"split_indices":[10,8,0,6,3,0,7,0,0,0,0],"split_type":[0,0,0,0,0,0,0,0,0,0,0],"sum_hessian":[7.929659E1,7.0281105E1,9.015488E0,6.6526436E1,3.7546751E0,5.666625E1,9.860184E0,1.1744995E0,2.5801759E0,2.523251E0,7.336933E0],"tree_param":{"num_deleted":"0","num_feature":"12","num_nodes":"11","size_leaf_vector":"1"}},{"base_weights":[3.6668092E-1,5.4058963E-1,-2.8713468E-1,6.722141E-1,-1.0051952E-2,-2.6385332E-3,-4.254694E-2,7.012032E-1,-3.2314185E-2,1.5544133E-1,-3.5742905E-2,-1.548064E-1,1.1411676E-1,7.17369E-2,-1.4053638E-2,1.9081136E-2,-0E0,-0E0,-3.7415873E-2,3.1363588E-2,-0E0],"categories":[],"categories_nodes":[],"categories_segments":[],"categories_sizes":[],"default_left":[0,0,0,0,0,0,0,0,0,0,0,0,0,0,0,0,0,0,0,0,0],"id":56,"left_children":[1,3,5,7,9,11,-1,13,-1,15,-1,17,19,-1,-1,-1,-1,-1,-1,-1,-1],"loss_changes":[1.6769289E1,8.731251E0,9.791012E-1,3.0216484E0,1.3998715E0,2.3542747E-1,0E0,1.5937119E0,0E0,1.1433405E-1,0E0,3.002532E-1,1.0868024E-1,0E0,0E0,0E0,0E0,0E0,0E0,0E0,0E0],"parents":[2147483647,0,0,1,1,2,2,3,3,4,4,5,5,7,7,9,9,11,11,12,12],"right_children":[2,4,6,8,10,12,-1,14,-1,16,-1,18,20,-1,-1,-1,-1,-1,-1,-1,-1],"split_conditions":[8.97E-5,1E0,5.7493E-4,1E0,3E0,2.76677E-4,-4.254694E-2,5.96067E-4,-3.2314185E-2,1.26E-5,-3.5742905E-2,1.63356E-4,4.00526E-4,7.17369E-2,-1.4053638E-2,1.9081136E-2,-0E0,-0E0,-3.7415873E-2,3.1363588E-2,-0E0],"split_indices":[7,0,7,8,0,7,0,5,0,7,0,7,7,0,0,0,0,0,0,0,0],"split_type":[0,0,0,0,0,0,0,0,0,0,0,0,0,0,0,0,0,0,0,0,0],"sum_hessian":[1.4518456E2,1.1535307E2,2.983148E1,9.374262E1,2.1610447E1,1.1108971E1,1.872251E1,9.172139E1,2.021235E0,1.384939E1,7.7610574E0,6.6115746E0,4.497396E0,9.064835E1,1.0730342E0,1.2162926E1,1.6864644E0,3.7494323E0,2.8621423E0,1.2664329E0,3.2309632E0],"tree_param":{"num_deleted":"0","num_feature":"12","num_nodes":"21","size_leaf_vector":"1"}},{"base_weights":[5.585723E-2,-3.859714E-1,5.3250396E-1,-3.9878864E-2,-0E0,6.075925E-1,-1.87272E-1,6.371656E-1,-1.3026252E-2,-3.352904E-2,-0E0,2.1603124E-2,7.07867E-2],"categories":[],"categories_nodes":[],"categories_segments":[],"categories_sizes":[],"default_left":[0,0,0,0,0,0,0,0,0,0,0,0,0],"id":57,"left_children":[1,3,5,-1,-1,7,9,11,-1,-1,-1,-1,-1],"loss_changes":[2.197349E1,2.6762962E-1,2.998825E0,0E0,0E0,1.3099709E0,2.0711224E-1,8.1516266E-1,0E0,0E0,0E0,0E0,0E0],"parents":[2147483647,0,0,1,1,2,2,5,5,6,6,7,7],"right_children":[2,4,6,-1,-1,8,10,12,-1,-1,-1,-1,-1],"split_conditions":[6.27E-6,1.0353892E-2,2.07098E-3,-3.9878864E-2,-0E0,8E0,2.58045E-4,3.73E-5,-1.3026252E-2,-3.352904E-2,-0E0,2.1603124E-2,7.07867E-2],"split_indices":[1,7,3,0,0,6,1,1,0,0,0,0,0],"split_type":[0,0,0,0,0,0,0,0,0,0,0,0,0],"sum_hessian":[1.03003586E2,5.2959137E1,5.0044453E1,5.1260826E1,1.6983076E0,4.6016502E1,4.027947E0,4.496037E1,1.0561335E0,2.7548666E0,1.2730806E0,7.771142E0,3.7189228E1],"tree_param":{"num_deleted":"0","num_feature":"12","num_nodes":"13","size_leaf_vector":"1"}},{"base_weights":[-1.7813249E-1,-3.470525E-1,2.0601198E-1,-4.6844783E-1,-4.0590044E-2,3.4090656E-1,-3.94428E-2,-4.884212E-2,-0E0,3.9871395E-2,-1.1028496E-1,3.956805E-1,-1.7959137E-2,-2.0011414E-2,1.2889362E-2,1.8782608E-2,7.9900734E-2],"categories":[],"categories_nodes":[],"categories_segments":[],"categories_sizes":[],"default_left":[0,0,0,0,0,0,0,0,0,0,0,0,0,0,0,0,0],"id":58,"left_children":[1,3,5,7,9,11,-1,-1,-1,-1,13,15,-1,-1,-1,-1,-1],"loss_changes":[5.79454E0,2.0417166E0,2.161232E0,4.774208E-1,4.6870625E-1,7.8015065E-1,0E0,0E0,0E0,0E0,4.3592694E-1,1.2111299E0,0E0,0E0,0E0,0E0,0E0],"parents":[2147483647,0,0,1,1,2,2,3,3,4,4,5,5,10,10,11,11],"right_children":[2,4,6,8,10,12,-1,-1,-1,-1,14,16,-1,-1,-1,-1,-1],"split_conditions":[3.51749E-4,4.88E-5,1.6E1,1.54295E-4,6.51E-5,3.085576E-2,-3.94428E-2,-4.884212E-2,-0E0,3.9871395E-2,6E0,1.1E1,-1.7959137E-2,-2.0011414E-2,1.2889362E-2,1.8782608E-2,7.9900734E-2],"split_indices":[3,7,6,3,7,3,0,0,0,0,6,2,0,0,0,0,0],"split_type":[0,0,0,0,0,0,0,0,0,0,0,0,0,0,0,0,0],"sum_hessian":[8.716064E1,6.147714E1,2.5683496E1,4.267643E1,1.8800709E1,2.1828384E1,3.8551128E0,4.1218647E1,1.4577842E0,1.2687733E0,1.7531935E1,2.0727657E1,1.1007279E0,1.4324268E1,3.207666E0,1.4980167E1,5.74749E0],"tree_param":{"num_deleted":"0","num_feature":"12","num_nodes":"17","size_leaf_vector":"1"}},{"base_weights":[-2.892513E-1,-4.5384225E-1,5.0215685E-1,-5.02565E-2,2.551994E-1,6.1073184E-1,-1.2220587E-2,7.342901E-2,-1.7804852E-2,-0E0,6.732919E-1,7.504885E-2,-0E0],"categories":[],"categories_nodes":[],"categories_segments":[],"categories_sizes":[],"default_left":[0,0,0,0,0,0,0,0,0,0,0,0,0],"id":59,"left_children":[1,3,5,-1,7,9,-1,-1,-1,-1,11,-1,-1],"loss_changes":[1.0420492E1,2.4830904E0,1.1878486E0,0E0,1.1620772E0,3.6810398E-1,0E0,0E0,0E0,0E0,2.0017529E-1,0E0,0E0],"parents":[2147483647,0,0,1,1,2,2,4,4,5,5,10,10],"right_children":[2,4,6,-1,8,10,-1,-1,-1,-1,12,-1,-1],"split_conditions":[2E0,9.192383E-3,5.65E-5,-5.02565E-2,1.0521142E-2,2.43E-5,-1.2220587E-2,7.342901E-2,-1.7804852E-2,-0E0,1E1,7.504885E-2,-0E0],"split_indices":[4,7,1,0,7,7,0,0,0,0,2,0,0],"split_type":[0,0,0,0,0,0,0,0,0,0,0,0,0],"sum_hessian":[7.8809135E1,6.5940414E1,1.2868724E1,6.2496655E1,3.4437597E0,1.1653878E1,1.2148457E0,2.0184178E0,1.4253418E0,1.3416514E0,1.0312227E1,8.557702E0,1.7545252E0],"tree_param":{"num_deleted":"0","num_feature":"12","num_nodes":"13","size_leaf_vector":"1"}},{"base_weights":[-2.5463572E-1,-3.729232E-1,7.535484E-2,-4.4133222E-1,6.805305E-2,-5.1770236E-2,-5.4307893E-2,-2.4629232E-2,1.8252887E-2],"categories":[],"categories_nodes":[],"categories_segments":[],"categories_sizes":[],"default_left":[0,0,0,0,0,0,0,0,0],"id":60,"left_children":[1,3,-1,5,-1,-1,7,-1,-1],"loss_changes":[9.008741E0,4.985898E0,0E0,1.6305256E0,0E0,0E0,6.1827755E-1,0E0,0E0],"parents":[2147483647,0,0,1,1,3,3,6,6],"right_children":[2,4,-1,6,-1,-1,8,-1,-1],"split_conditions":[1.047267E-3,3.78E-5,7.535484E-2,1.737599E-3,6.805305E-2,-5.1770236E-2,1E1,-2.4629232E-2,1.8252887E-2],"split_indices":[11,9,0,7,0,0,2,0,0],"split_type":[0,0,0,0,0,0,0,0,0],"sum_hessian":[7.545912E1,6.826121E1,7.1979074E0,6.4817276E1,3.443935E0,5.2915012E1,1.1902263E1,7.728549E0,4.173713E0],"tree_param":{"num_deleted":"0","num_feature":"12","num_nodes":"9","size_leaf_vector":"1"}},{"base_weights":[3.410552E-1,4.945674E-1,-2.5620815E-1,6.005711E-1,-2.0558181E-1,-3.5020655E-1,-0E0,6.2979543E-1,-3.464427E-2,-0E0,-3.751988E-1,-1.8492526E-1,-5.1583406E-2,6.9501124E-2,-3.2751927E-1,6.5781154E-2,-3.281712E-2,-6.795381E-3,4.4697683E-2,-4.6564307E-2,-0E0,-3.0490607E-2,3.4865562E-2,-4.4398315E-2,-0E0],"categories":[],"categories_nodes":[],"categories_segments":[],"categories_sizes":[],"default_left":[0,0,0,0,0,0,0,0,0,0,0,0,0,0,0,0,0,0,0,0,0,0,0,0,0],"id":61,"left_children":[1,3,5,7,9,11,13,15,-1,17,19,21,-1,-1,23,-1,-1,-1,-1,-1,-1,-1,-1,-1,-1],"loss_changes":[1.3190447E1,8.697891E0,5.481403E-1,3.0044441E0,6.7565906E-1,1.4437652E-1,2.094293E0,2.8816795E0,0E0,3.6172408E-1,3.4527922E-1,8.128625E-1,0E0,0E0,3.7720257E-1,0E0,0E0,0E0,0E0,0E0,0E0,0E0,0E0,0E0,0E0],"parents":[2147483647,0,0,1,1,2,2,3,3,4,4,5,5,6,6,7,7,9,9,10,10,11,11,14,14],"right_children":[2,4,6,8,10,12,14,16,-1,18,20,22,-1,-1,24,-1,-1,-1,-1,-1,-1,-1,-1,-1,-1],"split_conditions":[2.52E-5,3.15E-5,8E0,5.96067E-4,8.18E-5,4.0825E-4,4.057797E-3,1E0,-3.464427E-2,6.91E-5,7E0,3.77197E-4,-5.1583406E-2,6.9501124E-2,2.7E1,6.5781154E-2,-3.281712E-2,-6.795381E-3,4.4697683E-2,-4.6564307E-2,-0E0,-3.0490607E-2,3.4865562E-2,-4.4398315E-2,-0E0],"split_indices":[3,1,2,5,1,3,3,10,0,1,0,3,0,0,2,0,0,0,0,0,0,0,0,0,0],"split_type":[0,0,0,0,0,0,0,0,0,0,0,0,0,0,0,0,0,0,0,0,0,0,0,0,0],"sum_hessian":[1.4137271E2,1.132004E2,2.8172314E1,9.89973E1,1.4203102E1,1.9315508E1,8.856805E0,9.670839E1,2.288914E0,5.4892697E0,8.713833E0,1.1708529E1,7.606979E0,2.2595599E0,6.5972447E0,9.4619804E1,2.0885847E0,4.289431E0,1.1998388E0,7.074589E0,1.6392436E0,1.0499062E1,1.2094674E0,5.2757206E0,1.3215243E0],"tree_param":{"num_deleted":"0","num_feature":"12","num_nodes":"25","size_leaf_vector":"1"}},{"base_weights":[3.7040275E-2,-3.7735963E-1,6.018162E-1,-3.886572E-2,-0E0,6.598293E-1,-6.6708654E-2,6.876794E-1,-0E0,-2.5356967E-2,-0E0,7.192901E-2,-0E0],"categories":[],"categories_nodes":[],"categories_segments":[],"categories_sizes":[],"default_left":[0,0,0,0,0,0,0,0,0,0,0,0,0],"id":62,"left_children":[1,3,5,-1,-1,7,9,11,-1,-1,-1,-1,-1],"loss_changes":[2.5582846E1,3.6882782E-1,2.1241493E0,0E0,0E0,8.781071E-1,1.428775E-1,6.517334E-1,0E0,0E0,0E0,0E0,0E0],"parents":[2147483647,0,0,1,1,2,2,5,5,6,6,7,7],"right_children":[2,4,6,-1,-1,8,10,12,-1,-1,-1,-1,-1],"split_conditions":[2.51E-5,3.818565E-3,2.07098E-3,-3.886572E-2,-0E0,6E0,2.53394E-4,3.90219E-4,-0E0,-2.5356967E-2,-0E0,7.192901E-2,-0E0],"split_indices":[1,5,3,0,0,6,1,3,0,0,0,0,0],"split_type":[0,0,0,0,0,0,0,0,0,0,0,0,0],"sum_hessian":[1.0784358E2,6.1787846E1,4.6055737E1,6.0660973E1,1.1268716E0,4.3072422E1,2.983314E0,4.147148E1,1.6009396E0,1.9632096E0,1.0201042E0,3.912318E1,2.3483005E0],"tree_param":{"num_deleted":"0","num_feature":"12","num_nodes":"13","size_leaf_vector":"1"}},{"base_weights":[-1.4555092E-1,-3.867357E-1,2.6997373E-1,-5.281789E-2,-4.920955E-2,3.481413E-1,-3.260092E-2,-2.1744305E-1,2.5127798E-1,4.7397828E-1,-0E0,-0E0,-3.484652E-2,7.519974E-2,-0E0,-0E0,5.943144E-2,2.3241462E-2,-3.7147477E-2],"categories":[],"categories_nodes":[],"categories_segments":[],"categories_sizes":[],"default_left":[0,0,0,0,0,0,0,0,0,0,0,0,0,0,0,0,0,0,0],"id":63,"left_children":[1,3,5,-1,7,9,-1,11,13,15,17,-1,-1,-1,-1,-1,-1,-1,-1],"loss_changes":[8.661934E0,2.3219843E0,1.5059683E0,0E0,9.114616E-1,1.4700637E0,0E0,3.0266452E-1,8.054526E-1,1.1761713E0,7.133962E-1,0E0,0E0,0E0,0E0,0E0,0E0,0E0,0E0],"parents":[2147483647,0,0,1,1,2,2,4,4,5,5,7,7,8,8,9,9,10,10],"right_children":[2,4,6,-1,8,10,-1,12,14,16,18,-1,-1,-1,-1,-1,-1,-1,-1],"split_conditions":[1.75972E-4,5.54E-5,1E0,-5.281789E-2,3E0,8.14E-6,-3.260092E-2,4.00526E-4,9.8E-5,3.90219E-4,2.952844E-3,-0E0,-3.484652E-2,7.519974E-2,-0E0,-0E0,5.943144E-2,2.3241462E-2,-3.7147477E-2],"split_indices":[3,7,8,0,0,5,0,7,7,3,7,0,0,0,0,0,0,0,0],"split_type":[0,0,0,0,0,0,0,0,0,0,0,0,0,0,0,0,0,0,0],"sum_hessian":[8.482727E1,5.445668E1,3.037059E1,3.7132294E1,1.7324389E1,2.777462E1,2.5959694E0,1.2261632E1,5.062756E0,2.1297894E1,6.4767265E0,5.2999797E0,6.9616523E0,1.5454259E0,3.5173302E0,4.60361E0,1.6694284E1,3.2908435E0,3.185883E0],"tree_param":{"num_deleted":"0","num_feature":"12","num_nodes":"19","size_leaf_vector":"1"}},{"base_weights":[-2.658376E-1,-4.459261E-1,4.8515296E-1,-4.824169E-1,2.553511E-2,-3.236309E-3,6.136516E-1,-5.018794E-2,-1.0841636E-1,-0E0,-1.1358047E-2,7.0279264E-1,6.2699795E-2,-2.648226E-2,-0E0,-0E0,7.8679435E-2,-0E0,9.318617E-3],"categories":[],"categories_nodes":[],"categories_segments":[],"categories_sizes":[],"default_left":[0,0,0,0,0,0,0,0,0,0,0,0,0,0,0,0,0,0,0],"id":64,"left_children":[1,3,5,7,-1,9,11,-1,13,-1,-1,15,17,-1,-1,-1,-1,-1,-1],"loss_changes":[1.0505041E1,1.7852583E0,1.2224267E0,1.091795E-1,0E0,2.0948105E-2,2.0281744E-1,0E0,1.1674132E-1,0E0,0E0,2.4406385E-1,4.688116E-3,0E0,0E0,0E0,0E0,0E0,0E0],"parents":[2147483647,0,0,1,1,2,2,3,3,5,5,6,6,8,8,11,11,12,12],"right_children":[2,4,6,8,-1,10,12,-1,14,-1,-1,16,18,-1,-1,-1,-1,-1,-1],"split_conditions":[2E0,2.5E1,3E0,1E0,2.553511E-2,1E0,1E1,-5.018794E-2,6E0,-0E0,-1.1358047E-2,3E0,1.6E1,-2.648226E-2,-0E0,-0E0,7.8679435E-2,-0E0,9.318617E-3],"split_indices":[4,6,6,4,0,2,2,0,6,0,0,4,2,0,0,0,0,0,0],"split_type":[0,0,0,0,0,0,0,0,0,0,0,0,0,0,0,0,0,0,0],"sum_hessian":[7.65195E1,6.242E1,1.4099498E1,6.0158684E1,2.2613149E0,2.227953E0,1.1871545E1,5.574969E1,4.4089932E0,1.1019197E0,1.1260333E0,9.318537E0,2.5530088E0,1.9873754E0,2.421618E0,1.5903636E0,7.728173E0,1.1309738E0,1.422035E0],"tree_param":{"num_deleted":"0","num_feature":"12","num_nodes":"19","size_leaf_vector":"1"}},{"base_weights":[-2.5785273E-1,-3.7113476E-1,7.156805E-2,-4.2923495E-1,4.234173E-1,-5.121547E-2,-0E0,5.957522E-2,-0E0,1.6866859E-2,-3.6726106E-2],"categories":[],"categories_nodes":[],"categories_segments":[],"categories_sizes":[],"default_left":[0,0,0,0,0,0,0,0,0,0,0],"id":65,"left_children":[1,3,-1,5,7,-1,9,-1,-1,-1,-1],"loss_changes":[7.7944374E0,3.0676079E0,0E0,2.1180944E0,3.1549466E-1,0E0,7.024344E-1,0E0,0E0,0E0,0E0],"parents":[2147483647,0,0,1,1,3,3,4,4,6,6],"right_children":[2,4,-1,6,8,-1,10,-1,-1,-1,-1],"split_conditions":[2E0,1E0,7.156805E-2,5E0,2E1,-5.121547E-2,6.18E-6,5.957522E-2,-0E0,1.6866859E-2,-3.6726106E-2],"split_indices":[10,8,0,6,6,0,1,0,0,0,0],"split_type":[0,0,0,0,0,0,0,0,0,0,0],"sum_hessian":[7.053401E1,6.3919235E1,6.614774E0,6.0364372E1,3.5548627E0,5.0326473E1,1.0037899E1,2.4371617E0,1.117701E0,6.888454E0,3.1494453E0],"tree_param":{"num_deleted":"0","num_feature":"12","num_nodes":"11","size_leaf_vector":"1"}},{"base_weights":[3.5212457E-1,5.417126E-1,-1.5255548E-1,6.1257654E-1,-1.5601422E-1,-0E0,-4.971033E-2,6.317616E-1,-2.0994475E-2,-0E0,-3.452338E-2,1.7456912E-1,-4.5231923E-2,6.416273E-2,-0E0,-2.1831684E-2,6.3131326E-3,-0E0,4.0221006E-2],"categories":[],"categories_nodes":[],"categories_segments":[],"categories_sizes":[],"default_left":[0,0,0,0,0,0,0,0,0,0,0,0,0,0,0,0,0,0,0],"id":66,"left_children":[1,3,5,7,9,11,-1,13,-1,15,-1,17,-1,-1,-1,-1,-1,-1,-1],"loss_changes":[1.3172663E1,5.176676E0,1.9343001E0,1.7089424E0,2.0430739E-1,2.071967E0,0E0,6.132088E-1,0E0,1.1370489E-1,0E0,9.501324E-1,0E0,0E0,0E0,0E0,0E0,0E0,0E0],"parents":[2147483647,0,0,1,1,2,2,3,3,4,4,5,5,7,7,9,9,11,11],"right_children":[2,4,6,8,10,12,-1,14,-1,16,-1,18,-1,-1,-1,-1,-1,-1,-1],"split_conditions":[1E0,4.41E-5,4E0,2.039782E-3,4.7E-6,6.29E-5,-4.971033E-2,2E0,-2.0994475E-2,7.54E-5,-3.452338E-2,2E0,-4.5231923E-2,6.416273E-2,-0E0,-2.1831684E-2,6.3131326E-3,-0E0,4.0221006E-2],"split_indices":[6,1,6,3,3,1,0,4,0,1,0,6,0,0,0,0,0,0,0],"split_type":[0,0,0,0,0,0,0,0,0,0,0,0,0,0,0,0,0,0,0],"sum_hessian":[1.347068E2,9.8615105E1,3.60917E1,9.0228745E1,8.386361E0,2.531783E1,1.0773871E1,8.88795E1,1.3492422E0,5.3573895E0,3.028972E0,1.852424E1,6.79359E0,8.764155E1,1.2379541E0,1.5232105E0,3.8341792E0,9.567254E0,8.956986E0],"tree_param":{"num_deleted":"0","num_feature":"12","num_nodes":"19","size_leaf_vector":"1"}},{"base_weights":[6.779952E-2,-3.5120943E-1,4.813914E-1,-3.622276E-2,-0E0,5.313148E-1,-1.01753145E-1,3.4742498E-1,6.507807E-1,-2.4830364E-2,-0E0,4.3041717E-2,-0E0,6.889479E-2,1.0824378E-2],"categories":[],"categories_nodes":[],"categories_segments":[],"categories_sizes":[],"default_left":[0,0,0,0,0,0,0,0,0,0,0,0,0,0,0],"id":67,"left_children":[1,3,5,-1,-1,7,9,11,13,-1,-1,-1,-1,-1,-1],"loss_changes":[1.7980892E1,1.4204979E-1,1.7729216E0,0E0,0E0,4.712391E-1,1.1075464E-1,7.230599E-1,1.3715649E-1,0E0,0E0,0E0,0E0,0E0,0E0],"parents":[2147483647,0,0,1,1,2,2,5,5,6,6,7,7,8,8],"right_children":[2,4,6,-1,-1,8,10,12,14,-1,-1,-1,-1,-1,-1],"split_conditions":[1E0,1.0353892E-2,2.07098E-3,-3.622276E-2,-0E0,3E0,6E0,7.89E-5,9E0,-2.4830364E-2,-0E0,4.3041717E-2,-0E0,6.889479E-2,1.0824378E-2],"split_indices":[0,7,3,0,0,0,0,3,0,0,0,0,0,0,0],"split_type":[0,0,0,0,0,0,0,0,0,0,0,0,0,0,0],"sum_hessian":[1.0239325E2,5.030046E1,5.2092785E1,4.833961E1,1.9608495E0,4.8815517E1,3.277268E0,2.1642035E1,2.7173483E1,1.9306884E0,1.3465797E0,1.7829449E1,3.8125858E0,2.4400398E1,2.7730849E0],"tree_param":{"num_deleted":"0","num_feature":"12","num_nodes":"15","size_leaf_vector":"1"}},{"base_weights":[-1.6925092E-1,-2.8585383E-1,2.6893052E-1,-4.4025746E-1,-5.4561242E-2,4.965258E-1,-3.7716698E-2,-4.8803896E-1,4.567375E-2,3.64616E-2,-4.8167747E-2,5.8416283E-1,-0E0,-5.2024644E-2,-1.2963824E-2,-6.760265E-3,2.447986E-2,-0E0,6.385667E-2],"categories":[],"categories_nodes":[],"categories_segments":[],"categories_sizes":[],"default_left":[0,0,0,0,0,0,0,0,0,0,0,0,0,0,0,0,0,0,0],"id":68,"left_children":[1,3,5,7,9,11,-1,13,-1,15,-1,17,-1,-1,-1,-1,-1,-1,-1],"loss_changes":[4.2505913E0,2.1021085E0,2.6014822E0,1.768084E0,1.3331355E0,6.8743086E-1,0E0,6.9838524E-2,0E0,5.9249735E-1,0E0,2.8836346E-1,0E0,0E0,0E0,0E0,0E0,0E0,0E0],"parents":[2147483647,0,0,1,1,2,2,3,3,4,4,5,5,7,7,9,9,11,11],"right_children":[2,4,6,8,10,12,-1,14,-1,16,-1,18,-1,-1,-1,-1,-1,-1,-1],"split_conditions":[2.152221E-3,1E0,1.6E1,3.37333E-4,1E0,1.379954E-3,-3.7716698E-2,1.54295E-4,4.567375E-2,8.81E-5,-4.8167747E-2,4E0,-0E0,-5.2024644E-2,-1.2963824E-2,-6.760265E-3,2.447986E-2,-0E0,6.385667E-2],"split_indices":[3,6,6,5,4,5,0,3,0,1,0,2,0,0,0,0,0,0,0],"split_type":[0,0,0,0,0,0,0,0,0,0,0,0,0,0,0,0,0,0,0],"sum_hessian":[8.177491E1,6.562624E1,1.6148672E1,3.77872E1,2.7839039E1,1.2599854E1,3.5488164E0,3.662179E1,1.1654085E0,2.236047E1,5.47857E0,1.0978637E1,1.6212177E0,3.211493E1,4.5068645E0,1.3536695E1,8.823775E0,1.1653923E0,9.813245E0],"tree_param":{"num_deleted":"0","num_feature":"12","num_nodes":"19","size_leaf_vector":"1"}},{"base_weights":[-2.653466E-1,-4.6856308E-1,4.125731E-1,-4.980341E-2,1.59457E-2,5.512176E-1,-2.8552322E-2,-0E0,6.222579E-2,-1.2478012E-2,3.516984E-2],"categories":[],"categories_nodes":[],"categories_segments":[],"categories_sizes":[],"default_left":[0,0,0,0,0,0,0,0,0,0,0],"id":69,"left_children":[1,3,5,-1,-1,7,-1,9,-1,-1,-1],"loss_changes":[1.0185455E1,1.2637482E0,1.8125088E0,0E0,0E0,3.2916498E-1,0E0,2.3222682E-1,0E0,0E0,0E0],"parents":[2147483647,0,0,1,1,2,2,5,5,7,7],"right_children":[2,4,6,-1,-1,8,-1,10,-1,-1,-1],"split_conditions":[2.79509E-4,2.5E1,2E0,-4.980341E-2,1.59457E-2,2.32729E-4,-2.8552322E-2,1.73325E-3,6.222579E-2,-1.2478012E-2,3.516984E-2],"split_indices":[5,6,0,0,0,7,0,5,0,0,0],"split_type":[0,0,0,0,0,0,0,0,0,0,0],"sum_hessian":[7.2529E1,5.6487877E1,1.604112E1,5.4815216E1,1.6726632E0,1.4068499E1,1.9726229E0,2.2864475E0,1.1782051E1,1.1118847E0,1.1745628E0],"tree_param":{"num_deleted":"0","num_feature":"12","num_nodes":"11","size_leaf_vector":"1"}},{"base_weights":[-1.9781882E-1,-3.110093E-1,7.08273E-2,-3.9575633E-1,5.120704E-1,-5.037085E-2,2.2841489E-2,6.6138946E-2,-0E0,2.239748E-2,-3.335495E-2],"categories":[],"categories_nodes":[],"categories_segments":[],"categories_sizes":[],"default_left":[0,0,0,0,0,0,0,0,0,0,0],"id":70,"left_children":[1,3,-1,5,7,-1,9,-1,-1,-1,-1],"loss_changes":[6.6276264E0,4.1621327E0,0E0,2.7031116E0,4.2288744E-1,0E0,7.478206E-1,0E0,0E0,0E0,0E0],"parents":[2147483647,0,0,1,1,3,3,4,4,6,6],"right_children":[2,4,-1,6,8,-1,10,-1,-1,-1,-1],"split_conditions":[1.047267E-3,1E0,7.08273E-2,5E0,2E1,-5.037085E-2,2E0,6.6138946E-2,-0E0,2.239748E-2,-3.335495E-2],"split_indices":[11,8,0,6,6,0,0,0,0,0,0],"split_type":[0,0,0,0,0,0,0,0,0,0,0],"sum_hessian":[6.498418E1,5.855019E1,6.4339867E0,5.387056E1,4.67963E0,4.369489E1,1.0175672E1,3.5716133E0,1.1080168E0,7.5202565E0,2.6554155E0],"tree_param":{"num_deleted":"0","num_feature":"12","num_nodes":"11","size_leaf_vector":"1"}},{"base_weights":[3.2491246E-1,4.7489828E-1,-3.722645E-1,5.5742073E-1,-2.2830682E-1,-4.0765887E-1,-0E0,6.1678225E-1,-0E0,-0E0,-3.448769E-2,-8.942538E-2,-5.1448494E-2,6.380405E-2,-2.9878756E-2,1.821307E-2,-2.5004143E-2,-2.1880863E-2,4.699634E-2,5.7833237E-3,-3.5458595E-2],"categories":[],"categories_nodes":[],"categories_segments":[],"categories_sizes":[],"default_left":[0,0,0,0,0,0,0,0,0,0,0,0,0,0,0,0,0,0,0,0,0],"id":71,"left_children":[1,3,5,7,9,11,-1,13,15,17,-1,19,-1,-1,-1,-1,-1,-1,-1,-1,-1],"loss_changes":[1.3649949E1,6.4453983E0,4.2772698E-1,3.1314182E0,4.0308374E-1,4.0221643E-1,0E0,1.9618874E0,4.6987322E-1,4.6900013E-1,0E0,4.3810228E-1,0E0,0E0,0E0,0E0,0E0,0E0,0E0,0E0,0E0],"parents":[2147483647,0,0,1,1,2,2,3,3,4,4,5,5,7,7,8,8,9,9,11,11],"right_children":[2,4,6,8,10,12,-1,14,16,18,-1,20,-1,-1,-1,-1,-1,-1,-1,-1,-1],"split_conditions":[1.63356E-4,4.41E-5,2.9E1,2E0,8.18E-5,3E0,-0E0,1E0,1E0,7.55E-5,-3.448769E-2,2.47E-5,-5.1448494E-2,6.380405E-2,-2.9878756E-2,1.821307E-2,-2.5004143E-2,-2.1880863E-2,4.699634E-2,5.7833237E-3,-3.5458595E-2],"split_indices":[7,1,2,2,1,6,0,10,6,1,0,1,0,0,0,0,0,0,0,0,0],"split_type":[0,0,0,0,0,0,0,0,0,0,0,0,0,0,0,0,0,0,0,0,0],"sum_hessian":[1.2870215E2,1.0663748E2,2.206466E1,9.616681E1,1.0470671E1,2.089026E1,1.1743984E0,8.668652E1,9.480288E0,2.773946E0,7.6967244E0,6.6573024E0,1.4232958E1,8.54013E1,1.2852285E0,5.815755E0,3.6645327E0,1.6072786E0,1.1666675E0,3.319239E0,3.3380635E0],"tree_param":{"num_deleted":"0","num_feature":"12","num_nodes":"21","size_leaf_vector":"1"}},{"base_weights":[5.6091674E-2,-3.1370848E-1,5.5061954E-1,-3.622519E-2,-0E0,6.136587E-2,-9.0818115E-2,3.6157552E-2,-1.8259421E-1,-2.569524E-2,-0E0,-3.577357E-2,5.198881E-3],"categories":[],"categories_nodes":[],"categories_segments":[],"categories_sizes":[],"default_left":[0,0,0,0,0,0,0,0,0,0,0,0,0],"id":72,"left_children":[1,3,5,-1,7,-1,9,-1,11,-1,-1,-1,-1],"loss_changes":[1.8873638E1,7.4405193E-1,2.0861025E0,0E0,5.8174455E-1,0E0,1.3668577E-1,0E0,4.610971E-1,0E0,0E0,0E0,0E0],"parents":[2147483647,0,0,1,1,2,2,4,4,6,6,8,8],"right_children":[2,4,6,-1,8,-1,10,-1,12,-1,-1,-1,-1],"split_conditions":[2.51E-5,6.18E-6,2.07098E-3,-3.622519E-2,8.04E-6,6.136587E-2,8E0,3.6157552E-2,1E0,-2.569524E-2,-0E0,-3.577357E-2,5.198881E-3],"split_indices":[1,1,3,0,1,0,0,0,4,0,0,0,0],"split_type":[0,0,0,0,0,0,0,0,0,0,0,0,0],"sum_hessian":[1.0158429E2,5.7647873E1,4.3936417E1,4.8777878E1,8.869994E0,4.073429E1,3.2021258E0,2.0942755E0,6.775719E0,2.0327044E0,1.1694216E0,4.9494042E0,1.8263147E0],"tree_param":{"num_deleted":"0","num_feature":"12","num_nodes":"13","size_leaf_vector":"1"}},{"base_weights":[-1.6322935E-1,-3.560369E-1,1.7054233E-1,-4.0099242E-1,1.8098092E-1,-0E0,3.927126E-1,-4.567074E-2,-1.2910542E-1,7.0054404E-2,-1.7220896E-2,1.3047506E-1,-4.2585008E-2,1.0786065E-1,6.81014E-2,7.4757496E-3,-4.2207863E-2,-1.16033945E-2,3.300923E-2,5.6397557E-2,-5.592682E-2],"categories":[],"categories_nodes":[],"categories_segments":[],"categories_sizes":[],"default_left":[0,0,0,0,0,0,0,0,0,0,0,0,0,0,0,0,0,0,0,0,0],"id":73,"left_children":[1,3,5,7,9,11,13,-1,15,-1,-1,17,-1,19,-1,-1,-1,-1,-1,-1,-1],"loss_changes":[5.3202085E0,1.4089155E0,1.2434427E0,4.240346E-1,9.714089E-1,1.0231313E0,6.7945457E-1,0E0,8.227397E-1,0E0,0E0,7.122803E-1,0E0,2.676233E0,0E0,0E0,0E0,0E0,0E0,0E0,0E0],"parents":[2147483647,0,0,1,1,2,2,3,3,4,4,5,5,6,6,8,8,11,11,13,13],"right_children":[2,4,6,8,10,12,14,-1,16,-1,-1,18,-1,20,-1,-1,-1,-1,-1,-1,-1],"split_conditions":[3.58454E-4,1.441219E-3,4.62E-6,8.81E-5,4.62E-6,2E0,1.1E1,-4.567074E-2,2.31847E-4,7.0054404E-2,-1.7220896E-2,2.152221E-3,-4.2585008E-2,6E0,6.81014E-2,7.4757496E-3,-4.2207863E-2,-1.16033945E-2,3.300923E-2,5.6397557E-2,-5.592682E-2],"split_indices":[3,5,1,1,1,4,2,0,1,0,0,3,0,2,0,0,0,0,0,0,0],"split_type":[0,0,0,0,0,0,0,0,0,0,0,0,0,0,0,0,0,0,0,0,0],"sum_hessian":[8.025839E1,5.180008E1,2.8458317E1,4.8774708E1,3.0253713E0,1.5434499E1,1.3023818E1,3.867131E1,1.0103396E1,1.5982223E0,1.4271489E0,1.1410801E1,4.0236983E0,7.769065E0,5.254753E0,5.170985E0,4.9324107E0,4.0786314E0,7.3321695E0,5.105342E0,2.6637228E0],"tree_param":{"num_deleted":"0","num_feature":"12","num_nodes":"21","size_leaf_vector":"1"}},{"base_weights":[-2.5574103E-1,-4.706066E-1,3.063034E-1,-5.0594863E-2,2.4076307E-2,-5.7650197E-2,5.949123E-1,-4.0456098E-2,1.7794165E-1,7.3819715E-3,6.797745E-2,-0E0,2.9177396E-2],"categories":[],"categories_nodes":[],"categories_segments":[],"categories_sizes":[],"default_left":[0,0,0,0,0,0,0,0,0,0,0,0,0],"id":74,"left_children":[1,3,5,-1,-1,7,9,-1,11,-1,-1,-1,-1],"loss_changes":[8.092087E0,1.4101439E0,2.1594832E0,0E0,0E0,7.687154E-1,7.3894024E-2,0E0,1.0115974E-1,0E0,0E0,0E0,0E0],"parents":[2147483647,0,0,1,1,2,2,5,5,6,6,8,8],"right_children":[2,4,6,-1,-1,8,10,-1,12,-1,-1,-1,-1],"split_conditions":[3.71E-5,2.5E1,6E0,-5.0594863E-2,2.4076307E-2,3E0,2E0,-4.0456098E-2,2.961893E-3,7.3819715E-3,6.797745E-2,-0E0,2.9177396E-2],"split_indices":[5,6,6,0,0,4,4,0,5,0,0,0,0],"split_type":[0,0,0,0,0,0,0,0,0,0,0,0,0],"sum_hessian":[6.5230354E1,4.789239E1,1.7337965E1,4.643279E1,1.4596047E0,7.0788164E0,1.0259149E1,3.5763392E0,3.5024772E0,2.3928437E0,7.8663044E0,1.3255635E0,2.1769137E0],"tree_param":{"num_deleted":"0","num_feature":"12","num_nodes":"13","size_leaf_vector":"1"}},{"base_weights":[-2.393445E-1,-3.6177844E-1,6.8838045E-2,-4.7597954E-1,8.769662E-3,-5.2427776E-2,3.9188635E-2,6.7945324E-2,-7.1698E-2,-3.203884E-2,1.4608539E-2],"categories":[],"categories_nodes":[],"categories_segments":[],"categories_sizes":[],"default_left":[0,0,0,0,0,0,0,0,0,0,0],"id":75,"left_children":[1,3,-1,5,7,-1,-1,-1,9,-1,-1],"loss_changes":[7.337569E0,2.697434E0,0E0,2.0765076E0,1.038704E0,0E0,0E0,0E0,7.35617E-1,0E0,0E0],"parents":[2147483647,0,0,1,1,3,3,4,4,8,8],"right_children":[2,4,-1,6,8,-1,-1,-1,10,-1,-1],"split_conditions":[1.047267E-3,1.737599E-3,6.8838045E-2,1E0,2.448034E-3,-5.2427776E-2,3.9188635E-2,6.7945324E-2,1E1,-3.203884E-2,1.4608539E-2],"split_indices":[11,7,0,8,7,0,0,0,2,0,0],"split_type":[0,0,0,0,0,0,0,0,0,0,0],"sum_hessian":[6.444121E1,5.7673832E1,6.7673755E0,4.500928E1,1.2664549E1,4.336976E1,1.639525E0,1.6236331E0,1.1040916E1,6.116583E0,4.924333E0],"tree_param":{"num_deleted":"0","num_feature":"12","num_nodes":"11","size_leaf_vector":"1"}},{"base_weights":[3.1346598E-1,4.590933E-1,-2.7240536E-1,5.80697E-1,-9.7779445E-2,-7.4460715E-2,-4.2028886E-1,6.322095E-1,-0E0,2.99829E-2,-3.3470802E-2,-0E0,-3.567199E-2,-4.895203E-2,-0E0,6.453155E-2,-0E0,-7.7545056E-3,2.927344E-2,-4.1244727E-2,1.8356299E-2,-1.6676327E-2,2.3010856E-2],"categories":[],"categories_nodes":[],"categories_segments":[],"categories_sizes":[],"default_left":[0,0,0,0,0,0,0,0,0,0,0,0,0,0,0,0,0,0,0,0,0,0,0],"id":76,"left_children":[1,3,5,7,9,11,13,15,17,19,-1,21,-1,-1,-1,-1,-1,-1,-1,-1,-1,-1,-1],"loss_changes":[1.1182339E1,7.338175E0,4.7930944E-1,2.5872974E0,7.14326E-1,4.2463028E-1,5.381355E-1,7.8528595E-1,1.8249474E-1,6.736379E-1,0E0,4.109516E-1,0E0,0E0,0E0,0E0,0E0,0E0,0E0,0E0,0E0,0E0,0E0],"parents":[2147483647,0,0,1,1,2,2,3,3,4,4,5,5,6,6,7,7,8,8,9,9,11,11],"right_children":[2,4,6,8,10,12,14,16,18,20,-1,22,-1,-1,-1,-1,-1,-1,-1,-1,-1,-1,-1],"split_conditions":[1.07107E-4,4.62E-6,1.008192E-3,1.13251E-4,8.16E-5,6.29E-5,2.9E1,2E0,2E0,8.04E-6,-3.3470802E-2,2.32729E-4,-3.567199E-2,-4.895203E-2,-0E0,6.453155E-2,-0E0,-7.7545056E-3,2.927344E-2,-4.1244727E-2,1.8356299E-2,-1.6676327E-2,2.3010856E-2],"split_indices":[7,1,7,3,1,1,2,4,6,1,0,7,0,0,0,0,0,0,0,0,0,0,0],"split_type":[0,0,0,0,0,0,0,0,0,0,0,0,0,0,0,0,0,0,0,0,0,0,0],"sum_hessian":[1.287383E2,1.0387916E2,2.4859137E1,8.598023E1,1.7898928E1,1.239757E1,1.2461566E1,7.893482E1,7.0454144E0,1.0541091E1,7.3578367E0,8.998607E0,3.3989632E0,1.130028E1,1.161287E0,7.762678E1,1.3080398E0,5.862238E0,1.1831764E0,1.6601524E0,8.880939E0,4.212578E0,4.786029E0],"tree_param":{"num_deleted":"0","num_feature":"12","num_nodes":"23","size_leaf_vector":"1"}},{"base_weights":[4.497234E-2,-3.668085E-1,4.102974E-1,-4.2315066E-1,-2.2211064E-1,4.525885E-1,-3.163987E-2,-4.4771094E-2,-0E0,-0E0,-3.4198138E-1,4.8245114E-1,-1.6378919E-2,-0E0,-7.902055E-3,-6.988638E-3,-4.4928342E-2,5.173946E-2,-0E0],"categories":[],"categories_nodes":[],"categories_segments":[],"categories_sizes":[],"default_left":[0,0,0,0,0,0,0,0,0,0,0,0,0,0,0,0,0,0,0],"id":77,"left_children":[1,3,5,7,9,11,-1,-1,13,-1,15,17,-1,-1,-1,-1,-1,-1,-1],"loss_changes":[1.5049721E1,8.234024E-3,1.7854061E0,1.9583988E-1,6.007008E-1,1.1460505E0,0E0,0E0,1.0141589E-2,0E0,7.824206E-2,7.781124E-1,0E0,0E0,0E0,0E0,0E0,0E0,0E0],"parents":[2147483647,0,0,1,1,2,2,3,3,4,4,5,5,8,8,10,10,11,11],"right_children":[2,4,6,8,10,12,-1,-1,14,-1,16,18,-1,-1,-1,-1,-1,-1,-1],"split_conditions":[6.27E-6,1E0,8E0,2E0,2E0,1.1E1,-3.163987E-2,-4.4771094E-2,4E0,-0E0,1E0,9E0,-1.6378919E-2,-0E0,-7.902055E-3,-6.988638E-3,-4.4928342E-2,5.173946E-2,-0E0],"split_indices":[1,6,6,2,6,2,0,0,2,0,2,0,0,0,0,0,0,0,0],"split_type":[0,0,0,0,0,0,0,0,0,0,0,0,0,0,0,0,0,0,0],"sum_hessian":[9.889735E1,4.5848236E1,5.3049107E1,2.9819517E1,1.6028719E1,5.096006E1,